china 0.187709 -0.357997 -0.034998 -0.135633 0.076889 0.189238 0.362962 -0.189025 0.073264 -0.247289 0.532069 -0.357600 -0.271006 -0.182020 0.355752 -0.101234 0.074422 0.346384 0.041600 0.021392 0.287828 -0.074291 0.234032 -0.185030 0.195586 0.038203 -0.127525 0.200961 0.253186 -0.370689 -0.048052 -0.450212 0.086526 -0.498857 0.118904 0.054160 0.018752 0.124253 0.248208 -0.205044 0.168571 -0.523561 0.041648 -0.083415 -0.111859 0.043826 -0.552127 -0.356724 0.562629 0.522492 0.216491 -0.414018 0.046676 0.120686 -0.017178 0.032334 -0.184514 0.158243 0.114291 -0.115972 -0.056164 -0.128067 0.227129 0.107100 -0.059611 -0.196753 0.187743 0.267248 -0.064249 0.114077 0.009266 -0.335822 0.400193 -0.025740 -0.045608 0.232217 0.110982 0.085642 0.165542 -0.128475 -0.074172 0.068624 0.162691 0.060769 0.041364 -0.022359 -0.022890 -0.095675 -0.014602 0.173767 0.201987 -0.151275 -0.054528 -0.237142 0.459789 -0.013858 -0.303933 0.068394 -0.110898 -0.436507 0.292041 0.175012 -0.251700 -0.174153 -0.180932 -0.174629 0.086082 0.169173 -0.492813 0.099577 0.297954 -0.098096 -0.007815 0.411027 0.038539 0.183728 0.146204 -0.142282 -0.252048 -0.039826 0.229330 0.010694 -0.015813 0.057977 0.207307 -0.330790 -0.599845 -0.099061 -0.121234 0.269868 0.142954 -0.076670 -0.005899 -0.080899 0.117131 -0.080640 -0.050489 0.108539 0.029181 0.174510 0.118901 0.036737 0.116390 -0.486793 0.068551 -0.141147 0.203059 -0.054902 -0.049041 0.205651 -0.264359 -0.052212 -0.228152 -0.107828 -0.028537 0.328453 -0.180969 0.280763 -0.872600 0.091767 0.099649 -0.131468 -0.040094 -0.078695 0.106895 -0.024203 -0.215664 0.356279 0.315748 -0.229052 0.077143 0.199586 -0.147811 -0.077359 -0.273052 -0.012360 -0.398149 0.215741 -0.094341 -0.252435 0.079051 0.121236 -0.030272 0.162521 -0.034702 0.155792 0.316112 0.018610 0.064744 0.129809 -0.158320 0.398063 -0.200485 0.189440 -0.289987 0.083953 0.308765 -0.003092 0.400050 -0.012750 -0.222536 0.177170 0.233502 0.676818 0.118826 -0.982683 0.023978 0.283677 -0.150034 -0.473459 0.001445 -0.026714 -0.026574 0.121358 0.433571 -0.148446 0.018574 -0.157083 0.169453 -0.055693 -0.083270 0.005687 0.087463 -0.034995 -0.000660 -0.153166 -0.005111 -0.015683 -0.025385 -0.191530 -0.046061 -0.142129 -0.184882 -0.259231 0.076356 -0.088017 0.259395 -0.009707 -0.031733 -0.207424 -0.425053 -0.022910 0.131421 -0.042540 0.114576 0.024430 -0.370506 0.302692 -0.161373 0.511542 0.160830 -0.158676 0.404187 -0.029299 -0.091675 -0.128641 0.076888 -0.201561 -0.269268 0.302833 0.096890 -0.042692 -0.215088 -0.022472 0.298676 -0.184291 -0.256423 -0.261141 0.085807 0.083937 -0.164225 0.104829 0.128888 0.354313 -0.215087 0.374855 0.048978 0.365511 0.255683 0.248375 0.269344 -0.217328 0.364966 0.188895 0.105997 0.098283 -0.178803 0.271599 0.351029 -0.275215 -0.070699 -0.294911 0.195146 -0.087336 0.064485 -0.051945 -0.077837 0.110436 0.487013 0.094103 1.339290 -0.123901 0.005680 -0.030125 -0.080871 0.111665 0.063386 0.293897 -0.323978 0.165962 0.042521 0.472255 -0.530631 -0.446068 -0.094405 0.259923 -0.231009 0.447699 0.293016 0.125869 0.004628 0.134480 0.032322 0.135438 -0.183669 0.245549 0.339490 -0.331144 0.329294 0.228449 -0.391128 0.024232 -0.434376 0.038392 -0.373936 0.024124 0.056233 -0.061464 -0.029024 -0.049961 -0.127044 0.333787 -0.597539 0.204973 -0.166648 -0.084514 0.107511 -0.471845 -0.098308 0.364865 0.500884 -0.101436 -0.338737 0.003326 0.207861 0.071107 -0.062570 0.091813 -0.264743 0.307114 -0.067533 -0.229409 0.098298 0.298169 0.014463 -0.272370 -0.255857 0.105859 0.459517 -0.082563 0.087031 -0.079010 -0.303831 0.051633 -0.012727 0.136610 0.311169 0.028087 0.391869 0.076769 0.171601 0.003227 0.128454 0.199113 -0.064378 0.197734 -0.115081 0.020515 0.267869 -0.145954 0.425676 0.093185 -0.019683 -0.201137 -0.093676 0.264491 -0.068808 -0.317845 0.112670 -0.183589 -0.088649 0.006729 -0.162743 -0.219984 -0.166448 -0.472417 -0.113961 0.185674 0.026610 -0.369408 0.019201 0.149980 -0.190591 0.110910 0.667463 0.039695 0.246783 0.090384 -0.262681 -0.123601 -0.129407 0.211226 0.059828 0.005137 -0.085634 -0.024049 -0.274500 -0.703070 0.041287 -0.163426 -0.001765 -0.061507 0.110552 -0.032846 0.162014 0.110035 -0.090421 0.235029 -0.090792 -0.240488 0.157473 0.095387 -0.119529 -0.168562 -0.356150 -0.166912 -0.262273 0.236259 -0.348266 0.079966 0.168114 -0.080387 -0.043176 0.197530 0.123717 0.076988 0.206695 -0.474927 0.060779 -0.803109 -0.046593 -0.039029 -0.197988 -0.217985 -0.294793 -0.203451 0.265735 -0.009775 0.434708 0.039889 0.006210 0.019991 0.178240 -0.236407 -0.075428 -0.307110 0.013430 -0.310192 0.056594 -0.132722 -0.187851 0.191183 -0.036184 0.217261 0.039795 -0.233409 0.134348 0.491397 -0.000655 0.106463 0.141051 0.379299 0.300492 0.004415 0.176521 -0.211517 -0.173962 0.096965 -0.177220 0.537675 -0.093280 -0.258748 0.154816 0.213767 0.536809 0.035469 -0.469618 -0.128262 0.506889 -0.310869 -0.152500 0.088718 0.026815 -0.281905 0.229039 0.314588 0.233723 0.141532 -0.043402 0.053449 -0.147960 -0.272310 0.019280 0.143535 -0.137713 0.149570 -0.030023 -0.077943 0.042640 -0.281615 -0.177153 0.131791 -0.241420 -0.066473 -0.025046 -0.007308 0.139073 0.211293 0.045080 -0.104898 -0.280297 -0.568789 -0.194440 0.090701 0.089917 0.035569 -0.029486 -0.105666 0.089043 0.345445 0.428873 -0.029411 0.086439 0.400064 0.127196 -0.312964 0.071588 0.062542 -0.001020 -0.243828 0.396836 0.027162 0.336553 -0.413988 -0.056507 0.122341 -0.129677 -0.147849 -0.213035 -0.281509 0.132103 -0.534368 -0.013592 0.318743 0.199515 -0.366863 0.015252 -0.022403 0.275185 0.083634 0.204302 0.163175 -0.125036 0.283661 0.051875 -0.390909 0.301936 -0.039140 0.043908 0.014828 -0.174624 -0.061110 0.117857 0.342340 -0.233397 0.147703 0.077609 -0.016474 0.036771 0.245476 0.230888 1.332383
russia 0.364037 -0.283744 0.203746 -0.474813 0.366804 -0.030089 0.204382 -0.158708 -0.128444 -0.260667 0.193233 -0.132039 -0.040365 0.155031 0.192535 0.272787 -0.162155 0.311257 -0.248555 -0.206012 0.196716 0.018190 0.393737 -0.300847 0.144851 0.027963 0.112726 -0.094926 0.795281 -0.415947 -0.183280 -0.075203 -0.180632 -0.519521 0.136047 0.257428 0.108160 0.244364 -0.102745 -0.390727 0.272136 -0.118426 -0.126569 -0.087672 0.319106 -0.142235 -0.601839 -0.494311 0.221205 0.556620 0.197083 0.051623 0.053059 -0.272779 -0.049672 0.031675 -0.108874 -0.099043 -0.231022 0.148638 -0.015777 -0.495580 0.062634 0.037817 0.056479 0.039113 -0.037583 0.107493 -0.349183 0.218230 -0.256254 -0.183470 0.206871 0.138159 -0.196538 0.214327 0.335169 0.146407 0.296502 0.017533 0.209776 0.096052 0.141468 -0.082296 0.114912 -0.044595 0.041917 -0.173351 -0.058827 -0.240293 0.358696 -0.208817 -0.135965 -0.320293 0.429775 0.619029 -0.150427 -0.026480 -0.123452 -0.145418 0.644046 -0.062580 -0.109287 -0.434765 0.037033 0.248958 0.470602 -0.056842 -0.444713 0.337094 0.172931 -0.084186 -0.086618 0.285354 0.092730 0.248812 0.264235 -0.005606 -0.132735 -0.013082 0.367864 -0.124283 -0.123279 -0.265587 -0.056570 -0.048933 -0.376772 0.076639 0.089147 0.085145 -0.030277 0.128368 -0.088877 -0.059557 0.041080 -0.378765 0.160312 0.052620 0.116685 0.302548 0.190718 -0.087676 0.044957 0.187058 0.039951 -0.002318 -0.066927 -0.316608 -0.067683 0.386282 0.053217 0.081327 0.120997 -0.058873 0.078652 0.233088 0.251247 0.222835 -0.857013 -0.067220 0.242189 -0.243428 0.207138 -0.138595 -0.268051 0.127487 -0.081908 0.359527 -0.129233 -0.051912 0.014584 -0.033106 -0.017430 -0.076852 -0.369899 -0.158915 -0.211180 0.124032 -0.007154 0.042909 -0.167120 0.076006 0.247003 0.254920 -0.121716 -0.011417 0.177731 0.159168 0.306708 0.008066 0.153285 0.302367 -0.204389 -0.004080 -0.026539 0.094442 -0.063090 0.194233 0.054640 -0.263418 -0.188069 0.227811 -0.030026 0.091153 0.546523 -0.605288 0.139525 0.318356 -0.007969 -0.216181 0.046092 -0.173086 0.228789 -0.151307 0.231260 -0.143952 -0.145386 0.005505 0.017355 0.128256 0.234540 -0.427439 0.382041 -0.401611 -0.028875 -0.059531 -0.139050 -0.162747 -0.241302 -0.043370 -0.074469 -0.054268 0.006061 -0.149370 -0.025226 0.389711 0.250522 0.263277 0.148608 0.163248 -0.009317 0.087134 -0.138147 -0.107548 0.015101 0.079426 -0.150003 -0.080611 -0.224643 -0.020572 0.205397 0.212998 0.363754 -0.083969 -0.018459 -0.084764 -0.078652 -0.081352 -0.129929 0.036490 0.068015 -0.315457 -0.011339 0.204187 0.047480 -0.049720 -0.173675 0.071108 0.077990 -0.057999 -0.076653 0.209754 -0.046285 0.426194 -0.268915 0.532478 0.219705 0.276208 0.218768 0.159521 0.040148 -0.367420 0.090457 -0.331007 0.313539 0.032580 -0.524082 -0.065114 0.163646 0.195517 -0.138236 -0.094720 0.261901 -0.103901 0.123442 -0.076061 -0.158894 0.124753 0.160311 -0.195656 0.938167 0.116099 -0.057604 0.137782 -0.342942 0.308520 -0.097308 0.124728 -0.289087 0.248674 0.085151 0.190784 0.027475 0.048909 0.154316 0.314540 0.164869 0.045935 0.315334 -0.172927 -0.046711 0.106052 -0.121886 0.236863 -0.295319 0.104828 0.115687 -0.170970 -0.214476 0.508089 -0.487355 -0.151465 -0.022444 -0.251407 -0.475100 0.109961 0.066182 -0.176584 0.346699 -0.125163 -0.359149 0.359505 -0.447173 -0.042179 -0.177751 0.175060 -0.200856 -0.402279 -0.118021 0.152596 0.595197 0.013356 0.045668 0.088599 -0.155819 0.173107 -0.102137 0.071417 -0.302999 0.058949 0.101146 -0.240213 -0.423406 0.297080 0.039965 -0.024323 -0.014989 -0.368484 0.146146 -0.226422 0.114038 -0.351636 0.140211 -0.102185 -0.039830 0.013069 -0.063206 0.138395 0.375612 0.233366 0.131494 0.194493 0.080838 0.244404 0.141222 0.429469 -0.131095 0.040320 -0.061639 -0.060228 -0.185623 0.057984 -0.199698 -0.229912 -0.064537 0.197094 0.300290 -0.297460 0.096360 -0.310905 -0.127766 0.280063 -0.359797 -0.143334 -0.411043 -0.353120 0.196628 0.393542 -0.281519 -0.163256 0.369050 -0.145678 -0.186235 0.030799 0.573444 0.113484 -0.119362 0.176872 -0.351485 0.026095 -0.061204 0.230230 0.023651 -0.026483 -0.373326 -0.197990 -0.233092 -0.560534 0.206049 -0.069806 -0.233879 -0.150070 0.080038 -0.169555 -0.067997 0.109038 -0.253162 0.037244 -0.064647 0.012915 0.323515 0.301709 -0.224916 -0.123980 0.408477 -0.040697 -0.075101 -0.154507 -0.379450 -0.138538 0.319419 0.117433 0.015735 0.252382 0.036881 0.068477 0.084771 -0.044233 0.035802 -0.813635 0.036354 0.298184 -0.252793 -0.003978 -0.439000 -0.199477 0.098812 0.017834 0.426003 -0.363414 -0.123792 0.118760 0.062467 -0.161950 0.062561 -0.446475 -0.263690 -0.153753 0.143383 -0.028221 0.130204 0.141291 0.125718 0.342800 0.351026 -0.165180 -0.098883 0.286129 0.011323 0.266332 -0.069111 0.315344 0.015750 -0.052039 -0.073942 0.021335 -0.051858 -0.103237 0.173110 0.173581 -0.365563 -0.239726 0.355179 0.004940 0.171725 0.318557 -0.317747 0.021419 0.347862 -0.135576 0.028856 -0.031509 -0.060091 0.254977 0.008705 0.066156 0.069152 -0.136203 0.027737 0.268055 0.095114 0.007192 -0.254242 0.489059 -0.264815 0.089536 0.127872 -0.104391 0.096282 -0.314696 0.069036 0.258450 -0.228636 0.197318 0.007331 -0.006607 0.418750 0.143324 0.104414 0.032103 0.220107 -0.205142 -0.346806 0.030749 -0.123022 0.014570 -0.090796 0.089519 -0.188977 0.213283 -0.065398 -0.127677 0.364796 0.330968 -0.219449 -0.417678 0.008681 -0.043354 0.045978 0.035970 0.059937 0.293081 0.019277 -0.242454 0.130151 0.088977 0.090621 -0.300206 0.129156 -0.112485 0.038218 -0.516380 0.030233 -0.108236 0.339111 -0.297925 0.363902 0.377045 0.023459 0.116776 0.036852 -0.241563 -0.108605 0.195314 -0.321099 -0.367182 0.206544 -0.427136 -0.198058 0.004368 0.074080 -0.129985 0.228000 0.178625 -0.263998 0.012412 -0.110112 -0.043635 0.269841 0.001326 -0.103720 0.937654
moscow -0.034924 -0.187924 0.227403 -0.654253 0.360824 0.061885 0.108012 -0.342453 -0.108757 -0.309031 0.058431 0.304176 -0.070896 -0.093187 -0.243237 -0.059020 -0.409324 -0.011824 -0.247126 0.029306 0.393152 0.140906 0.249544 -0.083327 -0.060952 0.009553 0.118266 -0.177174 0.744325 -0.564532 0.057061 -0.182282 -0.349180 -0.435276 0.447058 0.290757 0.044217 0.019939 0.177112 -0.396308 0.231990 0.224952 -0.010493 0.010198 0.202757 -0.330233 -0.439050 -0.047261 -0.094552 -0.049795 0.038324 -0.028500 -0.197806 -0.155521 -0.266624 -0.106953 0.206614 0.053703 -0.173476 0.186446 -0.235292 -0.308547 0.044180 -0.118082 0.030008 0.387819 0.141071 0.150109 0.031250 0.058902 0.005762 -0.140299 -0.071521 0.396131 -0.068928 0.175817 0.503557 -0.130478 0.249997 0.279747 -0.190518 -0.426890 -0.087493 0.045201 -0.139528 -0.000300 -0.160787 0.106668 -0.493949 -0.293494 0.056695 -0.304228 0.089322 -0.136834 0.343946 0.219425 -0.304147 -0.151435 -0.127338 -0.190424 0.601519 0.014526 0.206393 -0.228388 -0.124886 0.162101 0.336038 0.278675 -0.425086 0.449175 -0.007273 -0.157513 -0.225792 0.309645 0.093895 -0.083373 -0.088760 -0.058460 -0.104459 -0.044688 0.105986 -0.217873 -0.218606 -0.066967 0.024248 -0.073428 -0.217142 0.030730 0.007977 -0.001853 0.165338 0.252867 -0.212236 -0.273136 0.051679 -0.147877 0.182656 -0.051542 -0.018971 0.015200 0.189030 -0.308485 0.304972 0.210327 -0.076544 -0.093873 0.162860 -0.318576 -0.081225 0.124108 0.025836 -0.054430 0.392170 0.062665 -0.287039 0.133236 -0.012646 -0.100852 -0.963293 -0.139295 0.107474 -0.213921 0.098890 -0.112028 -0.017954 0.290120 0.012052 0.024765 -0.176800 0.090682 -0.099958 0.139998 -0.051963 -0.127755 -0.494765 -0.170794 -0.110065 0.212428 0.061458 0.038725 -0.343191 -0.109685 0.307388 0.281243 -0.042940 -0.266470 0.184307 0.037393 0.224474 0.049562 0.262720 0.147794 -0.232496 0.007270 -0.105497 0.184219 0.211827 0.192189 -0.147970 -0.406573 -0.260268 -0.076787 0.025301 0.001929 0.189957 -0.426233 0.070997 -0.077880 -0.001673 -0.063793 -0.175448 -0.096152 0.100239 -0.056704 -0.003497 -0.172975 -0.309857 0.009928 0.073580 0.105997 0.194402 -0.528370 0.602658 -0.105195 -0.064990 -0.094045 -0.481153 -0.223557 -0.114366 0.115273 -0.146531 -0.140062 -0.095738 -0.064561 0.047196 0.180840 0.092803 0.406142 0.202848 0.359748 -0.032333 0.075746 -0.150582 -0.046068 0.116206 0.056351 -0.259113 0.229518 -0.021686 -0.096500 0.179591 0.037233 0.267559 0.210725 0.136056 0.012881 -0.077809 0.012475 0.024279 -0.194181 -0.032424 -0.499346 0.189207 0.429974 -0.179541 0.127726 0.065500 0.340304 0.108999 -0.180944 -0.014893 -0.361140 0.323090 0.472120 -0.391009 0.401189 0.112251 0.235463 0.149614 0.140748 0.072253 -0.503933 -0.019050 -0.399408 0.390589 0.225706 -0.223019 0.043631 0.075926 0.111898 -0.142339 0.243025 0.269827 0.077484 -0.075767 -0.251299 -0.168558 -0.023098 0.189194 -0.280317 0.640259 -0.282422 -0.291624 0.075426 -0.372930 0.466044 0.021729 -0.100659 -0.215049 -0.055058 0.047156 -0.004732 -0.035897 -0.022157 0.081431 0.065407 -0.046772 0.115157 -0.077168 -0.347657 0.070879 0.412934 0.237112 -0.111561 0.015652 -0.134657 0.122381 0.160022 -0.320045 0.319619 -0.319297 0.196995 -0.041406 -0.314894 -0.373031 0.107035 0.187868 -0.002550 0.136429 -0.087456 -0.505070 0.306221 -0.323727 -0.098329 -0.157797 0.152103 -0.365759 -0.078188 -0.386047 0.006255 0.137301 -0.037034 0.140640 0.092105 -0.318287 0.174397 -0.127322 0.309592 -0.182515 -0.052016 0.042408 -0.278930 -0.349431 0.227650 -0.072771 0.003279 0.573362 -0.110820 0.020054 -0.064876 -0.267086 -0.296937 0.012067 -0.138431 0.199717 -0.121651 0.114356 0.127119 0.133941 0.082301 0.230332 -0.203179 -0.319168 0.235067 0.014153 0.159202 0.139804 -0.198873 0.189040 -0.265073 -0.224178 -0.127324 0.022276 -0.062344 0.080478 0.024063 0.013320 -0.577502 0.079788 -0.346259 0.348690 0.606564 -0.347249 0.019502 -0.230554 -0.391864 0.209575 0.401035 0.031210 -0.069400 0.288412 -0.231827 -0.257877 -0.223162 0.523027 -0.053287 -0.016287 0.216160 -0.280213 -0.028979 0.195622 0.061284 -0.055570 -0.073745 -0.206927 -0.183911 0.065772 -0.393723 0.171528 -0.139361 -0.305368 -0.176783 -0.103322 -0.169810 -0.472815 0.092378 -0.199089 -0.065636 -0.013120 -0.033706 0.155469 0.152508 -0.471121 0.075669 0.112751 0.078828 -0.061135 -0.055247 -0.540458 -0.079047 0.474535 -0.159502 0.147738 0.367840 0.271629 -0.114538 -0.271051 0.118014 -0.574818 -0.753324 0.183374 0.134568 -0.318468 -0.080980 -0.254400 -0.097411 0.430457 0.218686 0.228981 -0.153076 -0.384653 0.067600 0.024924 0.142458 0.120465 -0.417241 -0.112981 -0.238576 -0.221720 0.106574 0.140535 -0.058108 0.003721 0.270844 0.333249 -0.105464 -0.139327 0.185550 -0.187075 0.228188 0.135932 0.441836 -0.075989 -0.077508 0.233176 0.142471 0.087914 -0.030605 0.195493 -0.053731 -0.397744 -0.101348 0.041873 0.162369 0.216969 0.109760 -0.017223 0.023027 -0.038945 -0.148790 0.012779 0.023852 0.078713 0.046970 0.151445 0.044776 0.164852 -0.404576 0.109933 0.309337 -0.102437 0.144758 -0.298402 0.705070 -0.019588 -0.064144 -0.094331 -0.288946 -0.244869 -0.103437 0.040265 0.246694 0.087184 -0.118063 -0.076427 -0.029754 0.362116 0.290838 0.226052 0.173001 0.536024 -0.209544 -0.249649 -0.221445 0.156637 -0.110347 0.106441 -0.216811 0.064007 0.230221 -0.013093 -0.188104 0.287697 0.394570 -0.100872 -0.275855 0.153142 -0.040629 0.113959 0.154281 -0.178061 0.052966 0.089204 -0.087722 0.551086 -0.136420 0.373239 -0.286174 0.449806 0.331470 -0.067747 -0.243110 -0.139985 0.183459 0.607376 -0.299428 0.416815 0.413775 0.236602 0.219660 0.134001 -0.009956 -0.160932 0.107275 -0.231289 0.001861 0.375133 -0.439329 -0.153707 -0.136444 -0.181612 -0.010497 0.218223 0.069403 -0.094830 0.027541 0.016540 -0.190915 0.011579 0.038873 -0.225111 0.638678
iraq 0.066750 -0.341743 0.238313 0.090741 0.008812 0.014387 0.069615 -0.293325 -0.166842 0.371264 0.116065 0.180369 0.022576 -0.007674 -0.102268 -0.022188 0.075813 0.184556 -0.176463 -0.043917 0.111507 -0.031951 0.204463 -0.286344 -0.061039 -0.047277 0.436017 0.507555 0.310184 -0.010463 0.108564 -0.307456 0.070784 -0.223356 0.467829 0.171335 -0.387078 0.056275 0.187428 -0.113251 0.182686 -0.335295 -0.126878 -0.151400 0.171124 0.110391 -0.249900 -0.247264 0.428657 0.304107 0.211412 -0.194338 -0.183857 0.172320 -0.227491 0.143589 -0.115971 -0.016037 -0.100269 -0.036586 -0.125246 -0.235862 -0.241369 0.063432 0.110258 -0.454556 -0.095973 0.363897 -0.068225 0.094099 -0.725725 -0.055606 0.446147 0.101323 -0.414075 0.067879 0.410678 -0.178420 0.035151 0.188692 0.253021 -0.155350 0.209424 -0.028902 0.109044 -0.002721 -0.330644 0.347496 -0.031865 -0.134036 0.508341 -0.320984 0.002147 -0.367086 0.066906 0.150335 0.153711 -0.047746 -0.398980 0.159158 0.030226 -0.027895 -0.313802 -0.310324 0.237782 -0.170339 -0.363248 -0.001343 -0.537783 0.121725 0.271785 0.218227 -0.052848 -0.078468 0.279116 -0.403878 0.079953 0.513722 -0.370901 0.246363 0.338219 -0.175402 0.207080 -0.102377 -0.014367 0.001891 -0.616893 -0.331864 -0.202585 -0.052879 0.271188 -0.198837 -0.713752 -0.080616 -0.326519 0.049224 0.040919 -0.245390 0.262041 0.173309 0.285631 -0.245520 -0.179431 0.044759 0.263064 0.311634 0.186084 -0.317265 0.120753 0.166390 0.126581 0.212450 -0.098732 -0.341471 0.245661 0.049824 0.114050 0.257993 -0.510628 -0.042808 -0.075123 -0.134336 -0.100748 -0.260113 -0.385839 -0.249674 -0.180972 0.031235 -0.220671 -0.196216 -0.233006 0.173976 -0.196153 0.181218 0.039239 0.179110 -0.192969 0.274243 0.184644 -0.587857 -0.305140 -0.157590 -0.059741 0.077531 0.225208 -0.529755 0.176504 0.013361 0.352856 0.061059 -0.227657 -0.026763 0.133570 0.285194 0.093083 0.069905 0.039591 0.077258 0.289929 -0.248539 -0.061675 0.131979 -0.124682 -0.016888 0.292595 -0.816428 -0.081701 0.190387 0.088551 0.236266 0.016794 0.060017 0.377240 0.078382 0.160295 0.141997 -0.070622 -0.374540 -0.098440 -0.037205 -0.338375 -0.046079 -0.396061 -0.121386 -0.422387 -0.094585 0.426707 -0.160606 0.039858 0.253786 -0.358368 0.010122 0.043450 -0.175749 -0.110865 -0.138643 0.334245 0.115961 0.084145 -0.150226 -0.166461 0.008549 0.043674 -0.280693 0.065763 -0.076936 -0.164919 -0.387214 -0.021380 0.156333 0.103633 0.122564 -0.014942 0.059913 0.097813 0.111431 -0.025523 -0.155282 -0.117442 0.098311 -0.003859 -0.261347 -0.036277 -0.002091 -0.146324 -0.056598 0.018248 -0.087127 -0.104695 -0.047965 -0.019922 0.293250 -0.023909 0.244255 -0.311315 0.104963 0.041180 0.381378 0.124291 0.274242 -0.213871 -0.257234 0.357202 0.217717 0.234624 -0.150581 0.204515 0.000381 0.356636 -0.244644 -0.082816 -0.047823 -0.181360 0.137412 0.092810 0.052351 -0.236117 -0.006938 0.021055 0.031566 0.515491 -0.002060 -0.243739 0.116575 -0.063571 -0.090003 0.070044 -0.013092 -0.229505 -0.053892 0.621508 0.050797 0.153133 0.182612 -0.004532 0.023792 0.009320 0.224666 0.071483 -0.223604 0.015175 0.128115 -0.004369 -0.091486 -0.334666 0.066961 0.009491 -0.127301 0.210226 0.236249 0.141636 0.253479 -0.235009 0.012262 -0.209873 0.295938 -0.140313 -0.334969 0.087763 -0.024379 -0.400476 0.009031 -0.360740 0.088925 -0.168167 0.256276 0.144874 -0.119492 -0.271590 0.185076 0.454213 0.194826 -0.279179 -0.098804 0.077092 -0.075871 0.039287 -0.181817 -0.403376 -0.222054 -0.065666 -0.163285 -0.111284 0.154874 0.178262 -0.050453 -0.395038 -0.235799 0.317040 -0.092574 0.318539 -0.660333 -0.051334 0.104289 0.107020 -0.152660 0.002760 0.284813 0.270908 -0.105619 0.397232 0.252892 -0.106086 0.331953 -0.034643 -0.021705 -0.163704 -0.261948 0.441707 -0.043512 -0.144427 0.015549 -0.331259 -0.081559 -0.058605 -0.162263 0.000520 -0.035469 0.297397 -0.303448 0.289493 -0.130205 -0.549083 0.088995 -0.287089 -0.124327 -0.133518 -0.106657 -0.046027 -0.141693 -0.196023 0.096792 0.176021 0.118171 0.057887 0.140770 -0.166930 -0.015594 0.256579 -0.387720 0.251287 0.374487 -0.109716 0.071108 -0.176584 -0.168799 0.009920 -0.613572 -0.366431 -0.098349 -0.374757 0.059002 -0.123978 -0.385929 -0.075171 -0.507987 0.085276 0.041463 -0.190536 0.230362 0.310684 0.215003 -0.269895 -0.141758 0.134934 0.235212 0.049338 0.052353 -0.354236 0.086831 0.094762 0.122644 0.036097 0.296425 -0.178380 0.212912 -0.077973 -0.108196 -0.080191 -0.353152 0.099243 -0.069706 -0.280915 -0.294148 -0.247884 -0.335727 0.016680 -0.103816 0.268250 -0.286569 -0.123814 -0.022022 0.289881 -0.181873 0.078834 0.080121 -0.101269 0.081303 0.144325 0.294553 -0.211609 0.027617 -0.017676 0.281053 0.091893 0.388498 -0.176599 0.172777 -0.112340 0.092552 0.003141 0.018835 -0.250669 0.055213 0.173049 0.279183 0.152635 -0.171204 -0.002549 0.255276 0.021626 -0.146794 0.302212 0.157932 0.211228 0.131723 -0.375962 -0.265722 0.474013 0.114668 0.020401 0.165042 0.177737 0.344217 0.065916 0.128998 0.305000 0.047639 -0.209410 -0.025857 0.003350 -0.314909 0.091132 -0.256836 -0.198960 -0.230197 0.016316 0.445401 0.043370 -0.175891 0.025148 -0.166575 -0.090986 0.386549 -0.256248 -0.283395 -0.083666 0.292742 0.195228 0.015238 0.045848 -0.335357 -0.162036 -0.005698 -0.161874 0.439915 -0.173012 0.071658 -0.476564 0.183522 0.147023 -0.013085 0.410651 0.001528 -0.017428 -0.173298 0.190016 -0.131956 -0.007243 0.007153 0.300458 0.147076 0.090497 -0.060893 -0.010051 -0.119922 -0.048313 0.030494 0.053929 -0.518847 -0.087305 -0.292214 0.210392 0.113867 0.268247 -0.471993 0.093702 0.087263 -0.067721 0.185113 0.434396 -0.319487 -0.067837 0.354703 0.084124 -0.083079 -0.172370 0.083087 0.005175 0.082645 -0.344047 -0.167539 -0.079950 -0.034166 -0.060538 -0.072854 0.022334 -0.271123 -0.127178 -0.265016 0.236103 0.441113
afghanistan -0.125644 -0.456555 -0.028957 -0.034618 -0.034068 0.295883 0.375204 0.308984 -0.279243 0.030108 -0.008401 0.238595 -0.227119 -0.060954 -0.117268 0.266305 0.145210 0.185565 0.086010 -0.143478 -0.258618 0.179426 0.104351 -0.173585 0.062003 0.078277 0.138725 0.366326 0.203255 -0.045129 0.062699 -0.513579 -0.013532 -0.180262 0.231597 0.173150 -0.255651 0.448983 -0.194206 0.150787 0.023819 -0.236555 0.243478 0.142258 0.216344 0.181705 -0.301042 -0.482923 0.065363 0.727452 0.166861 0.045896 0.053073 0.124301 -0.313441 0.130885 0.031489 0.000810 0.173383 -0.262799 -0.186008 0.091156 -0.305192 0.016009 0.062726 -0.135277 -0.194929 0.063307 -0.113040 0.064190 -0.169871 -0.217409 0.083730 0.043563 -0.081401 0.042515 0.167683 -0.109732 0.115180 0.294924 0.171884 0.029804 0.404674 0.140493 0.123854 0.120920 -0.104991 0.168143 -0.082081 0.022135 0.454276 -0.440594 -0.125968 -0.495035 0.201085 -0.048516 0.224184 -0.234437 -0.298476 -0.089855 -0.042317 0.116345 -0.282880 -0.258371 0.096021 0.006756 -0.152901 0.142743 -0.574451 0.078685 0.344867 0.115759 -0.269563 0.296841 0.193528 -0.110542 0.002518 0.093285 -0.333636 0.211061 0.391709 -0.048678 0.266611 -0.059478 -0.173098 -0.075250 -0.867326 -0.351068 -0.325419 -0.057646 0.232588 -0.368017 -0.303880 -0.009937 0.065268 -0.161664 0.096368 -0.074473 0.065103 -0.044101 0.187104 -0.014549 -0.379188 0.079130 0.297037 0.448519 0.005236 -0.507846 -0.320124 0.033275 0.029622 0.278782 -0.008382 -0.211729 0.305533 0.258447 -0.070987 0.111507 -0.514392 -0.198897 -0.017469 -0.217864 -0.217105 -0.247277 -0.376791 -0.388759 -0.281815 0.153079 -0.149587 -0.056696 -0.124756 0.064651 -0.458595 0.147243 0.299856 0.316505 0.030215 0.310663 0.026752 -0.149698 -0.178383 0.087008 -0.177329 0.241587 -0.172939 -0.442190 0.091075 0.578590 0.173685 0.146315 -0.027107 0.269157 0.424192 0.021856 -0.105655 0.415782 0.269579 -0.072777 0.125821 -0.420571 -0.142254 0.182795 -0.310569 0.154415 0.250353 -0.758047 -0.138660 0.236873 -0.055242 0.304548 0.221242 0.061192 0.239965 0.203252 -0.052657 -0.097179 -0.025008 -0.049647 0.000114 -0.074708 -0.314309 0.059179 -0.283712 -0.056554 0.034654 -0.470577 0.246974 0.021525 0.035230 0.219130 -0.368442 0.108690 0.334298 -0.395424 0.001672 0.100202 0.362661 0.351594 -0.046259 -0.248911 -0.148204 -0.189171 0.252413 -0.435693 0.162827 0.030518 -0.108196 -0.202315 -0.043131 0.138846 0.269612 0.153841 -0.107618 -0.138116 0.184091 0.037811 -0.147691 -0.213770 -0.166585 -0.095677 0.073829 -0.196898 0.020303 0.125033 0.161846 -0.043133 -0.049600 -0.065374 0.025288 0.113357 -0.056632 0.018183 -0.121809 0.576955 -0.258659 0.034356 0.070725 0.503460 0.210499 0.158462 0.089239 -0.185475 0.371576 -0.004079 0.201542 -0.171029 0.119299 0.327667 0.298897 -0.105298 -0.142731 -0.150317 -0.151830 -0.119569 -0.104023 0.068570 -0.537755 0.019301 -0.170807 0.379478 0.430065 -0.197918 -0.430655 -0.098351 -0.180276 0.062216 0.340088 0.202518 0.340939 -0.193994 0.353996 0.036409 0.272955 0.069697 -0.180644 0.265932 0.028166 0.418909 -0.009953 -0.090840 -0.073091 -0.174504 -0.001280 0.045582 -0.093976 0.263401 0.050424 -0.315977 0.173989 0.137180 0.006655 0.175791 -0.476181 0.170740 -0.291013 0.048078 0.109419 -0.002810 0.184533 -0.248091 -0.153258 0.025257 -0.508463 0.218780 -0.152791 0.471362 0.247311 -0.170385 -0.440218 -0.045461 0.730680 0.256912 -0.014581 -0.069034 -0.040222 -0.083619 -0.016711 -0.004079 -0.338165 0.083652 -0.333338 -0.084271 0.143973 0.245150 0.181629 0.125333 -0.108553 -0.145270 0.002996 0.068556 0.186040 -0.196261 -0.166562 -0.087575 0.037851 0.138953 0.036547 -0.041385 0.462970 0.159286 0.389523 0.112767 -0.164644 0.355975 0.128536 0.259459 -0.158883 -0.376266 0.257221 -0.075476 0.007900 0.196824 -0.408442 -0.008578 -0.057339 0.144824 -0.189127 0.036695 -0.144138 -0.267474 -0.123648 -0.285497 -0.191880 0.048707 -0.257877 -0.020884 0.063526 -0.077921 0.100596 -0.288565 -0.266155 0.146552 0.052631 0.124724 0.220867 -0.030901 -0.179988 0.067906 -0.063021 -0.409077 0.243444 0.472625 0.118300 0.016244 -0.039091 -0.057939 -0.301842 -0.863202 -0.230101 -0.138200 -0.452804 0.166856 -0.316637 -0.100117 0.107381 0.005656 -0.417018 0.040764 -0.234496 0.021199 -0.014014 0.115943 -0.240309 -0.186195 0.310525 0.725240 0.203875 -0.155066 -0.493198 -0.028285 0.033300 0.065828 0.049910 0.183693 -0.195252 0.287126 -0.006696 -0.372828 -0.275306 -0.336578 -0.155560 0.077821 -0.293592 -0.191293 -0.481482 -0.348328 -0.035209 -0.351023 0.248064 -0.238431 -0.289156 0.002453 0.130032 -0.190915 0.257496 0.063980 -0.085988 -0.002354 0.190452 0.208605 -0.167072 0.138433 0.314919 0.010769 0.153498 0.047850 -0.472095 -0.013342 0.417286 0.031604 -0.106453 0.083385 -0.167936 0.404564 0.086811 -0.006006 0.437315 0.199543 0.050418 0.237023 0.158894 -0.230301 0.144207 0.080076 0.228527 0.101983 -0.314142 -0.245587 0.430798 -0.204018 0.426970 0.263943 0.118099 0.195692 0.016796 -0.010678 0.124750 0.172449 -0.121617 -0.036464 -0.197253 -0.398648 0.129927 -0.179592 -0.303978 0.082168 -0.171612 0.195725 -0.032392 -0.172847 -0.045195 -0.054106 0.102392 0.162568 -0.270890 -0.350568 0.145736 0.288267 0.121633 0.006109 0.060009 -0.401990 -0.265450 0.215321 -0.251622 0.285265 -0.077480 0.342844 -0.468127 0.306826 0.266864 0.139115 0.143449 -0.053185 0.054270 -0.258280 0.158152 -0.107265 0.055400 -0.110133 0.256175 0.148380 0.168928 0.115878 0.301947 -0.013583 -0.191805 -0.010116 0.183482 -0.321986 0.113594 -0.483084 0.076630 0.093652 0.504747 -0.274567 0.155959 0.199557 0.145152 0.105254 0.274624 0.048784 0.015312 0.074414 -0.112900 -0.089853 -0.088789 0.039512 0.223158 0.214080 -0.175428 -0.188746 -0.075649 0.084402 -0.299949 -0.336470 -0.030004 -0.534145 -0.274768 -0.275949 0.363751 0.400421
beijing 0.057981 -0.343164 0.024524 -0.081726 0.162535 0.037679 0.293364 -0.137242 -0.075652 -0.327138 0.154392 -0.176168 -0.025271 -0.306481 0.182772 -0.208705 -0.218364 0.218332 0.076653 0.089907 0.321440 -0.098833 0.234492 0.127521 0.170606 -0.127520 0.180554 0.200795 0.036175 -0.494201 -0.139076 -0.390575 0.046719 -0.231325 0.181418 0.099632 0.091485 -0.018787 0.237349 -0.349045 0.076571 -0.104197 -0.007743 -0.054403 -0.164197 -0.242864 -0.321040 0.014779 0.373727 0.031531 0.277903 -0.112373 -0.027597 0.294547 -0.158965 -0.125081 -0.096588 -0.036744 0.339278 -0.047553 -0.425188 0.160527 0.064061 0.012953 -0.401842 0.203024 0.359609 0.417959 0.105444 0.056570 0.052067 -0.353260 0.172972 0.053359 0.142146 0.216257 0.277958 0.076413 0.080372 -0.052487 -0.173575 -0.100459 -0.125673 0.012070 -0.075992 0.037875 -0.342118 0.123948 -0.101367 0.246338 -0.133099 0.023403 0.005021 -0.411388 0.115903 -0.174591 -0.169934 -0.190851 -0.200791 -0.205977 0.277317 0.338586 -0.076369 0.076670 -0.145486 -0.212823 0.026142 0.519794 -0.562913 0.171005 0.185566 -0.331949 0.060464 0.596774 0.079561 0.294429 -0.163559 -0.355370 -0.066641 -0.085143 -0.026906 -0.297498 -0.153498 0.143599 0.368755 0.065172 -0.149308 -0.032063 -0.038273 0.101553 0.092238 0.032955 0.003322 0.073209 -0.179474 0.037149 0.462872 0.142934 0.041646 0.104155 0.154508 -0.398256 0.001266 -0.465914 0.312382 -0.073046 -0.150899 -0.111203 -0.146060 0.203169 -0.170963 -0.206676 0.011932 0.027609 0.017221 0.422753 -0.183345 0.075505 -0.713125 0.153785 0.124786 -0.155784 -0.342399 -0.175074 -0.138230 0.185545 -0.099058 -0.034343 0.184071 -0.198915 -0.169939 0.312758 -0.109342 -0.149949 -0.031117 -0.120624 -0.208888 0.178529 -0.198073 -0.176005 -0.262969 -0.007883 -0.136407 -0.128562 -0.319528 -0.237772 0.268545 -0.057035 -0.047318 0.255151 -0.046463 0.197920 -0.088523 -0.009455 -0.239793 0.173325 0.397295 0.162392 0.025835 -0.310251 -0.163941 0.073950 0.079984 0.230077 0.160848 -0.404226 -0.070644 -0.048830 -0.453674 -0.068555 -0.201675 0.070191 -0.113114 0.129428 0.367667 -0.219247 -0.256055 0.020968 0.057974 0.163425 -0.243832 -0.332286 0.288705 0.129814 -0.218824 -0.048865 -0.566828 -0.048170 -0.062244 0.289805 0.107353 -0.248573 -0.121640 -0.083833 -0.064495 0.139778 0.250309 -0.304715 -0.028829 -0.053586 -0.321255 0.013896 0.182933 -0.189483 0.004539 -0.072169 -0.195888 0.238304 0.112135 0.324194 0.036360 -0.278988 0.356643 0.189160 -0.044742 -0.307077 -0.159055 -0.161667 0.068332 -0.237314 -0.271428 -0.420130 -0.279112 -0.052732 -0.132711 -0.211901 -0.076431 0.190195 0.255133 -0.068657 -0.138590 -0.115528 0.594378 0.342306 -0.279592 0.097763 -0.038618 0.473841 0.042762 0.102688 0.488435 -0.225222 0.204804 -0.091040 0.220118 0.223184 0.263600 0.256619 0.107639 -0.073557 -0.182702 -0.057576 0.378188 0.123408 -0.307560 -0.125678 -0.113249 0.142892 0.319015 0.147660 0.333588 -0.205040 -0.170743 -0.130608 -0.246079 0.188316 -0.030887 0.169649 -0.132398 0.110376 -0.149562 0.452544 -0.342388 -0.114170 -0.254696 0.260689 -0.147031 0.079727 0.088409 -0.047062 -0.001905 0.452751 -0.018419 0.140133 0.055839 -0.018162 0.163110 0.084496 0.051021 0.117657 -0.282893 0.003162 -0.447260 0.216688 -0.211912 -0.145003 0.143963 0.113706 -0.052673 0.200103 -0.474358 0.251464 -0.355683 -0.089460 -0.187101 -0.228222 -0.165537 -0.128480 0.031651 0.138575 0.122940 -0.030837 -0.256026 0.091197 0.235363 -0.008675 -0.105888 -0.027777 -0.156048 0.494710 -0.352822 -0.260333 0.003041 0.334306 0.118106 -0.505148 0.040899 0.205766 0.364292 -0.030293 0.106688 0.141755 -0.350794 0.129180 0.041747 0.278037 0.224234 0.226863 0.513925 -0.164495 0.111441 -0.132436 -0.156134 0.174400 -0.207822 0.002867 -0.134699 -0.174201 0.068179 -0.183354 0.360227 -0.307278 0.280905 -0.064796 -0.186905 0.182163 -0.115893 -0.418293 0.045289 -0.087640 0.026610 0.240818 -0.151150 -0.255494 0.118426 -0.185188 -0.072657 0.217318 0.390389 -0.243211 0.190309 -0.048169 -0.549859 0.336946 0.625727 -0.128274 0.267337 -0.092247 -0.415458 -0.139920 -0.049704 0.015370 -0.314265 -0.158313 -0.139168 0.156630 0.026182 -0.227604 0.013415 0.005846 0.068910 -0.253743 0.022224 -0.076191 0.201708 0.018674 0.412091 0.194015 -0.019594 -0.073803 0.046139 0.266569 -0.408309 -0.370083 -0.611441 0.087627 -0.204913 -0.289578 -0.276365 0.003496 0.242792 -0.168743 -0.178907 0.170225 0.153915 -0.085753 -0.111174 -0.380568 -0.263052 -0.520450 0.054603 0.003097 -0.262028 -0.183440 -0.216932 -0.288801 0.235622 0.052681 0.192866 0.143106 -0.540709 0.185216 0.287571 -0.030537 -0.032418 -0.067401 -0.054961 -0.267401 -0.307578 -0.207642 -0.064491 0.191778 -0.046056 -0.087856 0.147052 -0.265534 -0.063762 0.445902 -0.308241 -0.086072 0.104677 0.273263 0.100108 0.130170 0.208015 -0.105698 0.028393 0.426706 0.095955 0.091598 -0.280950 -0.153096 -0.102310 0.339439 0.508953 0.117508 -0.148661 -0.256985 0.092374 -0.404268 -0.129968 0.156363 0.248542 -0.300960 0.262168 0.359692 0.130679 -0.250993 0.001250 0.059905 0.006243 -0.210978 -0.033260 0.280585 0.074450 0.252915 -0.214196 -0.389638 0.132018 -0.015875 -0.007267 0.134358 -0.081988 -0.248930 -0.193769 -0.150506 0.171874 0.498961 -0.401930 0.063657 0.212927 -0.542148 -0.027822 0.050325 0.184551 -0.042979 -0.065460 0.164279 0.226510 0.246347 0.317828 -0.102770 -0.064934 0.279255 0.153186 -0.475811 -0.098420 -0.136957 0.011054 0.129210 -0.078056 -0.112040 0.193220 -0.321152 -0.028183 -0.251328 0.086379 -0.428577 0.040664 0.035564 0.160267 -0.050581 -0.009448 0.431759 0.406337 -0.107754 0.190655 0.001407 0.405495 0.109121 0.215694 0.252762 -0.045654 -0.086538 -0.127591 -0.125638 0.332547 -0.014581 0.161400 0.146698 -0.300805 0.088591 -0.048235 0.364158 -0.202798 0.005094 0.057414 -0.167422 0.086523 0.085118 0.245379 0.308750
ghana 0.095905 -0.017951 -0.149597 -0.251897 -0.153972 0.392185 0.428272 -0.004577 0.092571 -0.258148 0.217400 0.141388 0.202237 0.149987 0.107003 -0.110240 -0.022215 0.414643 -0.100044 -0.203421 -0.022655 -0.215190 0.125546 -0.212352 -0.024799 0.115176 0.039601 0.090945 0.278722 -0.020721 -0.226316 -0.486796 0.023961 -0.019000 0.298559 -0.086083 -0.201316 0.011519 0.332157 -0.342812 -0.070850 0.065781 0.252776 0.378849 -0.061084 0.383250 0.039481 -0.115309 0.198066 0.419480 0.177229 0.141067 -0.061855 -0.260548 -0.236726 0.089968 -0.126944 0.107344 0.052373 -0.246133 -0.030213 0.058557 -0.054912 -0.145496 0.153050 0.064552 -0.325064 0.408450 0.148713 0.302006 -0.301931 -0.112416 0.207731 -0.272349 0.129045 -0.005463 0.176030 0.055865 0.006201 -0.294205 0.212560 0.129168 0.137985 0.366538 0.307872 -0.366257 0.108194 0.163746 -0.219640 0.205133 -0.058851 0.127000 -0.088801 -0.413439 0.008580 0.628047 -0.408263 0.006812 0.115965 0.286839 -0.062593 0.015230 0.111244 0.270645 -0.187965 -0.158379 0.046507 0.098334 -0.454807 0.107849 0.308561 0.214888 0.392523 0.255806 0.178282 0.044589 -0.299024 0.424423 -0.193604 0.200065 0.213542 -0.274657 0.291187 -0.170819 0.045249 0.053151 -0.109571 -0.129411 -0.563622 0.398450 -0.320359 0.407586 -0.264146 -0.365720 0.215945 0.111276 0.309655 -0.244276 0.237780 0.041603 0.398003 -0.179297 -0.138197 -0.219585 0.122899 0.072497 0.332417 -0.246894 -0.293782 -0.143408 0.247842 0.039722 -0.074103 -0.190388 0.306236 0.381925 -0.235879 0.182250 -0.173900 -0.207340 -0.154436 0.102949 0.153317 0.208647 0.174993 -0.409597 0.018199 0.095224 -0.112636 -0.095190 -0.157034 -0.060312 0.168582 0.717022 0.408811 -0.251242 -0.261623 0.476466 -0.209142 -0.072400 -0.064028 0.075490 -0.052791 0.084915 -0.292233 -0.074881 0.095572 -0.013337 0.081627 0.308331 0.142758 0.266755 -0.135960 0.150300 -0.214288 -0.101461 -0.035120 0.205693 0.095864 0.100773 0.234147 0.478143 -0.535895 -0.203700 0.185294 -0.357894 -0.252645 0.300838 -0.020704 -0.169608 -0.128400 -0.464107 0.256379 -0.169524 0.117412 0.265391 0.015412 -0.197949 -0.057130 0.294645 -0.011428 -0.134838 0.201300 0.146416 0.120120 -0.079034 0.070168 -0.558321 -0.017446 0.041266 -0.324300 -0.165717 0.177328 0.105764 -0.081271 0.435914 0.061455 -0.016074 0.112880 -0.058674 0.029530 -0.086298 0.114136 -0.122842 -0.082642 0.223254 -0.205691 0.056667 -0.191866 -0.165312 -0.048882 0.712029 -0.008004 0.080185 0.280531 -0.175459 0.074682 -0.150697 0.034059 -0.236491 0.373806 -0.028192 -0.279496 -0.319599 0.230219 -0.027306 -0.018245 -0.214026 0.064327 -0.236494 0.002796 0.142259 -0.322362 0.522658 -0.377707 -0.014122 -0.268725 0.065894 -0.184979 0.074211 -0.005826 -0.230463 0.137653 -0.157884 0.202232 0.007707 -0.056607 -0.036636 0.339996 0.043328 -0.137447 -0.184212 0.264485 0.048944 -0.258388 -0.209845 -0.395873 0.020386 0.271621 0.021544 0.289649 -0.012517 0.265461 0.062051 -0.475815 -0.136048 0.321989 0.197405 -0.085355 0.440160 -0.041991 0.228177 -0.052732 0.316300 -0.183001 0.210792 -0.269101 -0.047313 0.173608 -0.297357 -0.269253 -0.001453 -0.251197 -0.098590 -0.131771 -0.002979 0.089661 -0.258705 0.130267 0.504011 -0.064331 -0.089940 -0.331883 0.276735 -0.087323 0.185946 -0.037204 0.025176 -0.127028 -0.078167 -0.425956 -0.104103 -0.013721 0.306249 0.116677 0.113578 0.197964 0.416502 -0.171817 -0.021524 0.353015 -0.025183 -0.089013 -0.073085 -0.379822 -0.050061 -0.040822 -0.354546 -0.011691 -0.109460 -0.393212 0.130108 0.187258 0.337466 -0.144589 0.197102 -0.000105 -0.204772 0.042918 0.016166 0.322639 -0.277213 -0.053314 -0.125803 -0.243244 -0.023130 0.146887 0.101991 0.741671 0.012636 -0.123060 0.210626 0.073357 0.180401 0.271006 0.369452 -0.161284 0.116309 0.424174 -0.276002 0.155429 -0.167997 0.330489 0.038858 -0.220242 -0.103453 0.364815 -0.299543 0.053374 0.144206 0.447498 -0.169651 -0.254866 -0.131564 0.268809 -0.167646 -0.090692 0.122357 0.149911 -0.038816 -0.179642 0.136285 0.136176 0.430716 0.416079 0.161294 -0.170563 -0.282013 0.216730 -0.128237 0.258505 -0.035209 -0.052391 0.031932 -0.224017 -0.162755 0.254480 -0.301488 0.307317 -0.606832 0.083259 -0.407679 0.218928 -0.151848 -0.212304 0.412088 0.066877 0.157493 -0.135385 0.274367 0.113517 0.695695 -0.069415 -0.221350 -0.005026 0.517118 -0.368251 0.131463 -0.120650 -0.224184 -0.383828 0.151619 -0.044326 0.298087 -0.013238 0.281018 0.237431 -0.163274 -0.243446 -0.318851 -0.096798 0.017580 0.024164 -0.022533 -0.178255 -0.094291 -0.229892 0.065446 -0.038933 0.172619 -0.014564 0.076397 -0.145963 0.033545 0.619280 0.201459 -0.186268 -0.154325 -0.053235 -0.305034 -0.005296 0.324962 0.419481 0.004388 0.062501 -0.054339 0.068093 0.192344 -0.014876 -0.099777 0.263839 0.169261 0.029181 0.048193 0.343336 0.196642 -0.084397 0.159703 0.292376 0.117361 0.266158 0.216814 0.456487 0.008666 -0.334796 0.121211 -0.318536 -0.077558 0.327205 0.046760 -0.154773 -0.169741 -0.225916 -0.085125 -0.430103 0.136804 0.411472 0.198421 -0.211379 -0.001072 0.092704 0.001999 -0.279190 0.130719 0.092491 0.259549 0.013419 0.200055 -0.376813 0.329276 -0.009127 -0.223757 -0.002225 -0.006425 0.002155 -0.329692 0.303765 0.013890 -0.239497 -0.161889 0.024157 -0.291769 -0.072283 -0.069561 0.194181 0.051104 0.405521 0.252213 -0.066678 0.089066 0.177552 0.078287 0.490870 0.237080 -0.018996 -0.087099 0.027865 -0.101698 -0.011741 0.032942 0.349464 0.388661 0.368936 -0.312653 -0.431119 -0.100938 0.222812 0.191438 -0.183062 -0.158110 0.158632 -0.099324 0.313127 -0.106086 0.375704 -0.048070 0.052766 -0.245557 -0.227627 -0.167084 0.352682 -0.108110 -0.005474 0.233659 -0.232036 -0.037049 0.082169 -0.233920 0.106808 0.234906 -0.203641 -0.053696 0.233554 0.396732 -0.307210 -0.246343 -0.173356 -0.280247 -0.175801 -0.014929 0.144185 0.332442
madagascar 0.342686 -0.152296 -0.018878 -0.112080 -0.300934 0.150951 0.039659 0.133833 0.259817 -0.136820 0.053767 -0.007522 0.322775 -0.038054 0.381768 -0.001928 0.219366 0.355588 0.137722 -0.327761 -0.073862 -0.285701 -0.235944 0.023520 0.415113 -0.102079 -0.183054 0.281010 0.293335 0.288831 0.083314 -0.328122 0.043213 -0.148665 0.126033 0.194248 0.232892 0.022661 -0.121214 0.217831 -0.016009 -0.205778 0.167596 0.091501 0.099636 0.102879 -0.095720 -0.289166 0.409907 0.482526 -0.146551 -0.016186 -0.210006 -0.061421 -0.025229 -0.144833 0.267669 0.137176 -0.032227 -0.264375 -0.138739 -0.081053 -0.090833 0.312890 -0.154732 -0.088885 -0.442257 0.425698 -0.109606 -0.177391 0.209452 -0.253536 -0.083871 -0.451733 0.225822 -0.152646 0.187649 -0.320586 0.086198 -0.300669 0.232720 0.063211 -0.198890 0.293794 -0.148450 -0.231932 0.215845 -0.210524 -0.087520 0.538473 -0.105218 0.122284 0.120057 -0.200619 0.163392 0.096247 -0.053593 -0.144979 0.369327 0.269813 -0.207248 -0.016406 0.075589 0.010415 -0.121268 -0.054405 0.315854 0.036257 -0.383065 0.289571 0.403271 0.189057 0.081713 0.144950 0.165075 -0.124508 0.008721 -0.149774 -0.703678 0.316376 -0.064014 0.027831 -0.044543 -0.051018 -0.323413 -0.056298 -0.144939 -0.090848 -0.012923 0.289908 0.046946 0.152549 0.092069 -0.366161 0.181485 0.094130 0.123286 0.038265 0.056133 0.141508 0.511581 0.153619 0.167148 -0.050448 -0.485009 0.338652 0.439148 -0.627831 0.013673 0.032475 0.238974 -0.169526 0.083588 0.092057 0.044400 0.114031 -0.023491 0.392304 -0.480999 0.399317 -0.060175 0.291657 0.358621 0.243675 -0.233056 -0.074692 -0.349230 -0.138705 -0.068928 0.142038 0.354994 -0.292804 -0.145381 -0.033278 -0.098386 -0.261294 -0.421328 0.147084 -0.007995 0.063178 -0.050844 -0.054173 -0.091857 -0.015380 -0.285055 -0.392034 0.208981 0.359660 -0.125703 0.171824 -0.420958 0.353363 0.090523 -0.124528 0.263414 0.163095 -0.083660 0.080132 0.095687 -0.051605 0.191586 0.266857 -0.063508 -0.220276 -0.060515 -0.348495 0.052745 0.045319 0.190146 0.052220 -0.233093 -0.272746 0.031786 -0.400035 0.160632 -0.215815 -0.173851 0.028618 0.158178 0.068084 -0.166393 0.198557 -0.195161 -0.271542 -0.052800 -0.094478 0.312707 -0.402630 0.352947 0.044617 0.199632 -0.022750 -0.008851 -0.090126 0.147364 0.386391 0.003679 0.148577 -0.074179 -0.413184 -0.299899 -0.113962 -0.090440 -0.358056 0.052989 0.358246 -0.207518 0.238433 0.187805 0.021653 -0.072600 0.118586 0.114399 0.338820 0.242658 -0.186569 0.078561 -0.129301 -0.145622 -0.236238 -0.005158 -0.124703 -0.064444 0.363580 0.252728 -0.069280 -0.315020 -0.406228 -0.210421 0.183827 -0.272067 0.365040 -0.056679 0.113819 -0.008440 -0.098875 -0.277813 0.417520 -0.118487 0.225378 -0.033848 -0.314918 0.167834 -0.329665 -0.252709 -0.000442 -0.432784 0.116584 0.553624 0.197435 0.124952 0.356013 -0.102994 0.134600 -0.215156 -0.167687 -0.096245 0.140102 0.211497 -0.034684 0.321138 0.017039 0.142457 0.224643 -0.048699 -0.430828 -0.011458 0.040480 0.195923 0.171769 0.395525 0.045778 -0.416047 0.556487 -0.124710 0.586106 -0.237061 0.255776 -0.123274 0.170911 -0.385846 -0.290456 -0.319061 -0.127951 -0.077109 0.228630 0.160763 -0.134883 0.014713 0.527167 -0.016306 0.568305 -0.113530 0.196136 -0.113557 0.027020 -0.147324 -0.021557 0.080508 0.071273 -0.046801 -0.059204 -0.409467 0.282692 -0.147669 0.058298 0.443671 0.026477 -0.382779 0.220679 0.316806 -0.239828 0.088768 -0.287359 -0.118440 -0.153736 -0.237276 0.230436 0.093020 -0.196620 -0.468819 0.025209 0.236749 0.389545 0.309940 -0.012608 -0.224204 -0.236469 0.204461 -0.295912 -0.003177 0.292290 0.072931 -0.399635 0.016814 0.137991 0.176735 0.028229 0.201856 -0.184844 0.151069 0.207162 0.164598 0.035954 0.454509 -0.123809 -0.286943 0.243104 -0.066921 -0.220381 0.390940 -0.206109 0.183194 -0.109413 -0.029008 0.105061 0.146264 -0.204304 0.194461 -0.003948 0.263538 -0.201646 -0.112318 0.311358 0.147274 -0.120733 0.000095 0.463593 0.084177 -0.158062 0.291702 0.437431 0.223448 0.217010 0.216685 0.510052 -0.243517 -0.150506 -0.288392 -0.196110 0.237669 -0.149253 -0.149312 -0.045254 0.097919 -0.304370 0.225583 -0.248820 0.201851 0.167873 -0.227785 -0.253541 0.164936 0.153198 -0.037665 0.137431 0.270363 0.235951 -0.237240 0.171826 0.215830 0.318234 0.017158 0.090004 -0.009934 -0.115610 -0.050312 0.086728 -0.486275 -0.040318 -0.022561 0.136951 -0.300499 0.577150 0.172770 0.220776 -0.155471 -0.250405 0.232976 -0.479900 0.422085 0.181958 0.284618 0.315099 -0.113731 0.024831 -0.187767 -0.171336 -0.011281 0.065740 -0.079367 0.079732 0.335602 -0.313736 0.187066 -0.043707 -0.459430 -0.214113 -0.012711 -0.025743 0.145397 0.338154 -0.062285 0.218385 -0.215944 -0.098383 -0.055495 0.383083 0.269617 -0.147893 0.208978 -0.131506 0.272677 -0.188664 0.066282 0.458675 0.170634 -0.303444 0.079767 0.211052 0.371860 0.332327 -0.059108 0.041883 0.034911 0.244911 -0.238500 0.089669 0.339964 0.034999 0.098029 -0.012168 0.180964 -0.223812 -0.444603 0.372649 -0.285037 -0.036067 -0.256341 -0.083776 -0.027521 0.063790 0.169580 -0.051565 -0.262107 0.375922 -0.181666 0.048039 0.011837 0.156767 -0.347840 0.017559 0.227670 -0.250149 -0.097148 0.024265 0.154137 -0.006968 -0.114363 -0.218810 -0.283014 -0.085895 -0.157584 -0.051923 -0.134420 0.139957 0.330177 -0.024408 -0.090445 0.114871 -0.157609 -0.283297 -0.019099 0.338363 0.226779 0.057837 -0.094739 -0.044237 0.061276 0.014569 0.269398 -0.073706 0.049446 -0.048887 0.289619 0.437798 -0.084647 0.031223 -0.253357 0.096241 0.247184 -0.084771 0.506269 -0.186956 0.000067 0.241193 -0.284000 0.027468 -0.003472 0.041329 -0.023573 0.003280 -0.093810 0.233804 -0.279574 -0.183443 -0.041486 -0.649788 0.043271 0.140285 -0.361301 0.131421 -0.016691 0.046788 -0.107973 0.172505 -0.083836 -0.016775 0.104539 -0.168959 -0.142327 0.296618
baghdad -0.081663 -0.541702 0.076052 0.013594 0.022850 0.074760 0.055456 -0.355211 -0.175020 0.145881 -0.061747 0.274311 0.162058 -0.130300 -0.008595 -0.210413 0.038800 -0.118627 -0.247499 -0.075553 0.257303 0.000450 -0.317053 -0.073163 -0.005371 -0.133104 0.558903 0.099581 0.046102 -0.036292 -0.190729 -0.537900 -0.087001 -0.125642 0.446856 0.040040 0.016578 0.063673 0.009453 0.006919 0.123406 -0.051120 0.130731 -0.164333 -0.081632 -0.032379 0.023200 -0.119347 -0.086684 -0.003292 0.187440 -0.168936 -0.062260 0.315879 -0.075656 -0.082498 0.075468 0.044586 0.043437 0.075605 -0.263335 -0.012909 0.052854 -0.347194 0.033617 0.010455 -0.140604 0.365542 0.031379 0.018721 -0.457774 0.000510 0.339922 0.213868 -0.563041 0.044645 0.374787 -0.367714 0.079016 0.342388 -0.311423 -0.226201 -0.037984 -0.207091 -0.053710 -0.006361 -0.473813 0.280458 -0.465567 -0.286605 0.136772 0.142640 -0.115419 -0.251689 -0.159519 0.071729 0.158817 -0.114402 -0.127506 0.087670 0.126472 0.321354 -0.228445 -0.050168 0.242694 -0.144375 -0.408871 0.080518 -0.517742 0.171912 0.355424 0.166045 -0.098264 -0.129316 0.417405 -0.411661 -0.166232 0.389551 -0.251939 0.193176 0.205315 0.089113 -0.096936 0.003110 -0.267646 -0.131075 -0.262528 -0.025220 -0.305078 0.082063 0.168482 -0.127475 -0.480989 0.091433 -0.170851 0.176318 0.398802 0.186388 0.131661 0.064611 -0.046110 -0.256230 0.067484 0.197288 0.165876 0.231363 0.249783 -0.090383 0.112705 0.086804 0.167249 0.023508 0.093838 -0.358802 0.011924 -0.057421 0.130484 0.031582 -0.503573 0.042273 -0.077277 -0.440243 -0.173307 -0.122817 -0.269979 0.131937 -0.053978 -0.053625 -0.249236 -0.147550 -0.338305 0.125172 -0.308131 -0.109452 -0.056758 -0.294960 -0.193468 0.181519 0.330535 -0.252272 -0.084089 0.014171 -0.012324 -0.028981 0.400434 -0.372154 -0.024461 -0.074760 0.068079 0.119677 -0.194183 0.188975 -0.021590 0.251497 0.233836 0.173061 0.319817 -0.091991 -0.035457 -0.205047 -0.238062 0.229622 -0.142326 -0.100197 -0.020911 -0.492595 -0.142788 -0.031935 0.095595 0.218357 0.271274 -0.053567 0.248865 0.087331 0.069740 -0.123997 -0.252992 -0.151021 0.157555 -0.014654 -0.626554 -0.370351 -0.117785 0.053065 -0.452182 -0.237243 0.072804 -0.053542 -0.012634 -0.069476 -0.073883 -0.313685 0.278255 -0.058029 0.081177 -0.029752 0.126191 0.150683 0.214524 -0.014808 -0.420169 0.115857 0.243106 -0.556159 0.105532 -0.063782 -0.155115 -0.206290 0.209203 0.161086 0.179358 0.055318 -0.015228 0.154418 0.188394 -0.180718 -0.248351 -0.155766 0.126253 -0.032929 -0.219656 -0.316862 0.176699 0.117099 -0.303749 -0.037377 0.158521 0.094506 -0.080765 -0.031912 -0.144478 -0.154162 0.362052 0.269028 -0.224681 -0.057966 -0.065570 0.010152 0.122083 0.319605 -0.028814 -0.170149 0.106333 0.030032 0.222037 0.049227 0.202125 -0.146339 0.180922 -0.109966 -0.159152 -0.046538 0.002397 0.179087 -0.092308 -0.178428 -0.188727 0.255736 0.327158 0.037728 -0.116857 -0.310844 -0.436526 0.059073 0.161790 0.009815 -0.083541 0.029671 -0.204692 -0.316238 0.331299 -0.061462 0.333340 0.064745 -0.374552 0.177897 -0.160924 0.168416 -0.545082 -0.336589 0.177331 0.106606 0.003758 -0.380513 0.080884 0.022753 -0.033051 0.217068 0.120309 -0.026025 -0.005791 0.091032 -0.411186 0.064716 -0.155726 0.226988 0.058380 -0.187690 0.236354 -0.014813 -0.348332 0.266810 -0.363843 0.211889 -0.150723 0.264793 0.216341 0.220914 -0.132993 -0.176813 0.210189 0.098753 -0.275998 -0.253909 0.268162 0.060216 -0.016468 0.035558 -0.178106 0.033905 -0.148991 -0.147253 -0.072153 0.167609 -0.306473 0.069092 -0.132800 0.045731 0.267197 -0.143045 0.379317 -0.544005 -0.131984 0.112549 0.357679 -0.317777 0.035789 0.326719 0.222441 -0.136633 0.390928 -0.044320 -0.300974 0.453718 -0.350263 0.005566 -0.124259 -0.501779 0.452769 -0.396283 -0.136585 0.005098 0.177825 0.129010 -0.096945 -0.249578 -0.016506 -0.109275 0.181438 -0.055298 0.423696 0.011533 -0.019259 -0.058344 0.058336 0.321267 -0.200958 -0.161502 0.137854 -0.223683 0.018625 -0.000309 -0.135187 -0.041088 -0.139717 0.237058 -0.113708 0.002480 0.194488 -0.090069 0.188872 0.226477 0.115229 -0.105679 -0.003431 -0.212791 0.009388 -0.223026 -0.298879 -0.248253 -0.286505 -0.112879 -0.205727 -0.099226 -0.049408 -0.423743 0.102257 0.130099 0.026119 0.049142 0.101613 0.253276 -0.414230 -0.129921 0.061709 0.179322 0.057929 -0.004018 -0.288947 0.325441 0.123724 -0.019162 0.055941 0.508050 0.009221 0.210806 -0.362710 0.068534 -0.298244 -0.270442 0.082317 -0.004568 -0.335495 -0.108858 -0.060784 -0.143681 0.079363 0.140721 0.298479 -0.249078 -0.297257 -0.263043 0.224738 -0.357021 0.239736 -0.051946 -0.180042 -0.137483 -0.166626 0.272413 -0.104455 0.400573 0.068532 0.205286 0.117730 0.283779 -0.112498 -0.223270 -0.259190 -0.084986 0.066667 0.059721 -0.014616 -0.133710 0.310062 0.351409 0.061771 -0.082551 0.073674 0.133759 0.028548 -0.113111 0.175452 0.263967 0.193785 -0.007630 -0.334921 -0.171673 0.269241 0.219087 -0.017925 0.421369 0.263642 0.313256 0.340827 0.360026 0.184662 -0.011965 -0.188632 0.177851 0.098726 -0.443118 -0.200758 0.031535 0.045528 -0.199300 -0.213231 0.329385 0.126510 -0.009384 -0.160026 -0.228040 -0.224974 0.257037 -0.217379 -0.077571 -0.078649 0.336388 -0.176032 0.202381 0.335049 -0.267031 -0.142114 -0.093824 -0.188065 0.051440 -0.027096 0.011482 0.020443 0.206795 0.009143 -0.338107 0.156284 0.186570 -0.124700 -0.252986 -0.172740 -0.161771 -0.108861 0.042733 0.344768 -0.034535 0.073800 0.077560 0.209718 -0.198479 0.174798 -0.054704 0.252844 -0.087498 0.086692 -0.069839 0.130716 0.231179 0.258136 -0.299844 -0.238267 -0.062100 0.082092 0.211766 0.445477 0.119203 -0.001456 0.090483 0.006303 0.231014 0.200341 -0.009040 -0.269009 -0.211918 -0.554864 -0.041693 -0.060368 -0.103310 -0.010707 0.170000 0.267310 -0.555121 0.342781 -0.206684 0.112795 -0.170700
kabul -0.107642 -0.521757 0.074904 -0.171156 0.101750 0.091693 0.348252 0.065656 0.096736 -0.185129 -0.061765 0.521239 0.011594 -0.322290 -0.269892 -0.060849 0.226604 -0.061663 0.058181 -0.082698 -0.066856 0.233071 0.045626 0.097239 -0.128799 0.173409 0.089487 0.244935 -0.138231 -0.203557 -0.192127 -0.437593 0.026762 -0.155354 0.058010 -0.064384 -0.192388 0.028430 -0.331042 0.081508 0.076303 -0.132051 0.205914 -0.350129 0.315103 -0.115892 -0.091852 -0.295503 0.068494 0.200715 0.240314 -0.075465 0.119039 0.364236 -0.332681 -0.166244 0.015629 0.006219 0.032669 -0.301842 0.025742 0.030067 -0.183502 -0.168290 0.233505 0.248984 0.045415 -0.002516 -0.076500 0.057530 0.065327 -0.138736 -0.105706 0.175801 -0.120864 -0.075487 0.163098 -0.242634 0.214479 0.299145 -0.458012 -0.208592 0.267945 -0.190847 0.073806 -0.009136 -0.227308 0.151163 -0.373952 0.148069 0.191952 0.074196 -0.362242 0.046884 -0.096827 -0.243447 0.042098 -0.372228 -0.257866 -0.211772 0.002410 0.494066 0.070030 0.071414 -0.010470 -0.095264 -0.143621 0.316234 -0.566500 0.096454 0.056708 0.275742 -0.225357 0.150849 0.180642 -0.148987 -0.087786 0.079472 -0.347005 0.078357 0.136347 -0.055344 -0.025051 -0.076234 0.160220 -0.107858 -0.317435 -0.235965 -0.276227 -0.190409 0.087984 -0.098141 -0.438488 0.221062 0.203673 -0.178173 0.405338 -0.138908 -0.155031 -0.273967 -0.001834 -0.145265 0.180593 0.228682 0.097006 0.397029 0.143960 -0.363387 -0.052055 -0.180555 0.275430 0.120694 -0.159431 -0.444277 0.086716 0.072941 -0.107817 0.135612 -0.362503 -0.184044 -0.144481 -0.238579 -0.418170 -0.005737 -0.227016 -0.031595 -0.126504 -0.048196 -0.181845 -0.342248 -0.074369 -0.134683 -0.198457 0.016206 0.177545 0.013026 0.026359 -0.007861 0.181176 -0.065274 -0.028666 0.369498 -0.410334 -0.041700 -0.064875 -0.442976 0.015376 0.107626 -0.086567 0.027169 0.032327 0.002453 0.273097 0.138591 -0.119350 0.427501 0.409509 -0.111555 0.091887 -0.311613 -0.180028 0.358835 -0.290933 -0.204746 0.202700 -0.319609 -0.044170 -0.016126 -0.053109 0.420024 0.337535 -0.070699 -0.167524 0.097463 -0.031704 -0.268750 -0.247518 -0.011880 0.117490 0.204352 -0.408504 -0.483802 -0.111531 0.129567 -0.212266 -0.445589 -0.240102 -0.029209 -0.197453 0.283409 -0.072764 0.076143 0.259978 -0.024158 0.230432 0.030807 0.308923 0.453020 0.117997 -0.255256 -0.279311 -0.177933 0.462743 -0.014284 0.086426 -0.017460 0.063052 -0.109915 0.059626 0.004373 -0.050287 0.047641 -0.183404 0.037107 0.312487 -0.150964 -0.207727 -0.151437 -0.080349 0.086895 -0.120513 -0.367104 0.203914 0.104888 -0.129475 0.031074 -0.161711 -0.006753 -0.081363 -0.108734 -0.062184 -0.235999 0.180391 0.355781 -0.179661 -0.177189 0.081534 0.244512 -0.026619 -0.059731 0.128560 -0.097862 0.240177 -0.066674 0.339683 -0.067609 0.163686 -0.049096 0.246141 0.045232 -0.018083 -0.003057 -0.106631 0.100431 -0.391901 -0.054643 -0.284673 0.238337 -0.027990 0.146391 -0.230011 -0.455005 -0.295243 0.068092 -0.166980 0.058152 0.084686 0.196621 0.055232 -0.074661 0.008451 0.017121 0.508833 -0.083579 -0.223196 0.049861 -0.086125 0.313233 -0.524619 0.118629 -0.022363 -0.219320 0.073533 -0.181055 0.139952 -0.060349 0.144786 -0.087736 0.112589 -0.129629 -0.105634 0.152758 -0.347844 0.397759 -0.151953 0.001373 0.106202 0.017166 -0.022082 -0.401558 -0.189115 0.089351 -0.306204 0.251508 -0.464257 0.507552 0.108558 0.272569 -0.259866 -0.020870 0.407227 0.079080 -0.071179 0.038859 0.464991 0.011224 0.034569 0.073321 -0.162626 -0.153121 -0.428208 0.052798 -0.105000 -0.134469 -0.087859 0.203897 0.049193 0.363734 -0.049703 -0.378884 0.197024 -0.292698 -0.104784 -0.194739 0.327551 -0.016059 0.018348 -0.010253 0.314361 0.112888 0.294939 -0.026195 -0.293379 0.382637 -0.083523 0.193586 0.027195 -0.280469 0.010898 -0.227859 -0.110977 0.104314 -0.121843 -0.153346 0.155053 0.152059 -0.274809 -0.110963 -0.106112 -0.270679 -0.035852 -0.121143 0.187982 0.022539 0.075973 -0.186539 -0.072505 -0.034835 0.151378 -0.176675 -0.079912 -0.104271 -0.018452 -0.100149 0.205750 -0.063318 -0.076718 -0.197838 -0.112953 -0.219262 -0.035283 0.159251 0.035112 -0.069090 -0.057616 -0.042825 -0.088949 -0.722471 -0.382879 -0.236414 -0.443283 0.077396 -0.252922 -0.281616 -0.029694 0.104977 -0.324647 0.083204 -0.277532 -0.000540 -0.061061 0.103905 -0.278296 0.092748 0.322175 0.432256 0.348369 -0.166816 -0.434939 0.015919 -0.010938 -0.022698 0.137421 0.137410 -0.028681 0.082259 -0.192562 -0.205431 -0.264785 -0.186864 -0.199719 -0.183098 -0.289211 -0.169944 -0.080345 -0.148677 0.060234 -0.082028 0.127632 -0.130200 -0.647397 0.025299 0.033079 -0.088358 0.288428 0.179030 0.061322 -0.185381 -0.456989 0.237936 -0.160829 0.572386 0.408646 -0.342894 0.211685 -0.142704 -0.457669 -0.242560 -0.077678 -0.122200 -0.064262 0.208845 -0.403238 0.160845 0.042263 0.088616 0.386757 0.226081 0.063697 0.294462 0.075902 -0.301887 0.072170 0.001270 0.023108 0.120070 0.124531 -0.232465 0.028364 -0.066054 0.152395 0.161145 0.354488 0.076984 0.016694 0.338790 0.109919 -0.120872 -0.017143 0.089445 0.056358 -0.448454 -0.189320 -0.126244 0.004186 -0.110845 -0.256131 -0.027369 0.006911 -0.051961 0.036055 -0.213720 0.058789 0.091445 -0.250950 -0.209445 -0.045380 0.267150 -0.156463 0.226752 0.216418 -0.100380 -0.339117 0.104144 -0.032813 -0.066539 -0.099579 0.209870 0.008932 0.241186 0.123886 -0.370374 -0.012441 0.193271 -0.171410 -0.056333 -0.002135 -0.350572 0.014311 -0.037183 0.315457 0.058561 -0.113947 0.103961 0.313966 -0.188531 0.271984 -0.253884 0.104468 -0.044318 0.275566 0.236990 -0.031764 0.133667 0.329596 -0.058316 0.019895 0.173969 0.195312 -0.009351 0.224627 0.195585 -0.012603 -0.018409 -0.139798 0.411044 0.044467 0.064596 0.145832 0.041095 -0.330951 0.028186 -0.083401 -0.079935 0.143023 -0.227715 0.163479 -0.574510 0.052655 -0.143883 0.137069 -0.299582
turkmenistan 0.378549 -0.189141 -0.128010 -0.068932 0.112117 0.039970 0.367022 0.145015 -0.165121 0.081449 0.134890 0.392010 0.062320 0.063248 0.076410 -0.062027 0.128419 0.217851 0.408376 -0.175648 0.113355 0.030091 0.075612 0.040233 -0.085264 0.165556 -0.243317 0.234383 0.380867 0.012990 0.399244 -0.403526 -0.111432 0.091464 0.135178 0.259908 -0.118300 0.106556 -0.140992 0.116679 0.425286 -0.013665 0.117679 0.264464 0.083491 -0.117030 -0.503942 -0.336403 0.277296 0.196126 0.090010 0.388649 0.098042 -0.123661 -0.107228 0.243344 0.135626 0.080447 -0.018284 -0.202126 -0.200499 0.013911 0.119196 -0.375781 -0.220206 0.234133 -0.194246 0.192782 -0.119391 0.042111 -0.075895 -0.328139 0.391488 -0.231488 -0.140266 0.144932 -0.000387 -0.214721 0.020853 0.105998 0.201807 0.184462 -0.092943 -0.062337 0.237657 0.126213 -0.302528 0.177173 -0.009696 0.041345 0.181816 -0.408466 0.057718 -0.762599 0.120167 0.128043 -0.023780 -0.383371 0.040258 -0.145784 0.136501 -0.126958 -0.106407 0.389621 -0.206533 0.163562 0.293682 -0.055436 -0.680148 0.201145 0.423063 0.212290 0.201526 0.027971 0.232222 0.075178 -0.083791 0.000230 -0.156580 0.236153 0.273276 -0.122680 0.352321 -0.123059 0.091078 -0.212509 -0.134992 -0.020840 0.126632 0.164800 0.066575 0.145853 0.134508 -0.341686 -0.047955 -0.162318 0.198685 0.100369 -0.213168 0.076864 -0.043343 -0.196659 -0.055557 -0.365744 0.135187 0.466829 -0.028133 -0.345651 -0.329215 0.468092 0.151557 -0.102190 -0.175068 -0.229756 0.257538 -0.109466 0.044579 0.331969 -0.366307 0.137880 0.220811 0.018203 -0.154550 -0.115259 -0.189790 -0.145345 -0.538681 0.047432 -0.408399 -0.072388 -0.013530 -0.290985 -0.365814 -0.005014 -0.470995 -0.094916 0.178777 0.217990 0.230019 -0.391584 -0.425060 -0.240826 0.031318 0.388010 0.105449 -0.184265 -0.070899 0.415235 0.323596 0.175447 0.350672 0.124565 0.139396 0.220769 0.319467 0.043809 0.031846 0.125676 0.156768 -0.028861 -0.001392 0.177198 -0.000888 0.298370 0.078948 -0.208030 -0.226137 0.129538 -0.249618 0.179910 0.239142 -0.318611 0.253221 -0.288100 0.182771 -0.120884 -0.190929 -0.129675 0.043299 0.195262 -0.064375 -0.210899 -0.180966 0.219278 -0.461872 0.056462 -0.010571 -0.045917 -0.287738 -0.037196 -0.463953 -0.258627 0.193888 -0.093585 -0.135757 0.241928 0.530251 0.178254 0.237808 -0.056625 -0.377782 -0.164624 0.060693 -0.083437 0.212392 0.086575 0.042317 -0.150394 -0.287175 -0.157303 0.116830 0.382107 0.051458 0.024806 -0.072917 0.175686 0.288090 0.001927 -0.011068 0.257647 0.334975 -0.239255 -0.301426 -0.103114 0.211032 -0.261093 -0.212488 0.169260 -0.184185 0.022078 -0.325518 0.244269 0.082691 0.314166 -0.203956 0.237617 0.351263 0.301218 0.350755 0.262677 -0.179535 0.068064 -0.032714 -0.374553 0.172033 -0.286739 -0.214787 0.345120 0.436884 0.297556 -0.446875 0.086878 -0.288825 0.126990 -0.010709 -0.061176 -0.189973 0.119998 0.085209 0.088867 -0.221366 0.294064 0.092909 0.137625 -0.198601 -0.083314 -0.059504 0.296110 0.127314 -0.029674 0.175959 0.044960 -0.048585 0.216506 -0.245154 0.053752 0.052131 -0.082630 -0.081132 0.010597 -0.214873 0.236978 -0.078986 -0.194092 -0.009803 -0.134935 0.249981 -0.099699 0.096379 0.282767 -0.336228 0.680218 -0.159833 0.213057 -0.157042 -0.122050 0.242602 -0.109497 0.225306 -0.402728 -0.131153 0.319777 -0.239015 0.148965 0.073558 0.117483 -0.072629 -0.246177 -0.563666 0.162512 0.314717 -0.048015 -0.000089 0.118308 -0.035392 0.239768 -0.082182 -0.139546 -0.214190 -0.101940 -0.636242 -0.275158 -0.009118 0.579352 -0.246116 -0.016996 0.022222 0.005852 -0.038261 -0.205969 0.200460 -0.196218 -0.234591 0.279045 -0.178736 0.126167 0.420604 -0.286490 0.596018 -0.178910 0.098850 0.247425 -0.063687 0.111914 0.050990 0.174466 0.213805 -0.371725 0.125066 -0.024442 -0.228495 0.062648 -0.273309 -0.236895 -0.458098 0.083250 -0.027176 -0.011046 -0.038462 0.143541 0.027551 0.170369 -0.259320 0.071160 0.350756 -0.116358 0.222848 0.259976 -0.054683 -0.032146 0.144896 0.248868 0.134787 0.306391 0.402517 0.008225 -0.049167 -0.078601 -0.024288 0.103930 0.327264 0.132598 0.010115 0.264512 0.009964 -0.104743 -0.067531 -0.553719 0.168321 -0.114870 -0.257593 0.233957 -0.054806 -0.059695 0.127791 -0.239138 -0.187240 -0.053718 0.135074 -0.172791 0.399060 0.221148 -0.188263 -0.082125 0.171017 0.515772 0.132555 -0.403354 -0.172046 0.106728 0.155283 0.109078 -0.133095 0.120606 -0.082913 0.305970 -0.271641 0.081752 0.240295 -0.358827 0.371244 0.192177 -0.134859 -0.051640 -0.544503 0.061206 -0.288854 0.030430 0.206302 -0.412627 -0.103223 0.149249 0.032272 -0.377394 0.199486 -0.323020 -0.051802 0.374033 -0.195332 0.342843 -0.011153 0.099004 0.209380 0.312964 0.289807 0.334749 0.010103 -0.024043 0.174615 0.045315 0.043961 0.208732 0.020689 0.141014 0.509728 0.392099 -0.272477 0.317568 0.172163 0.274581 -0.072810 0.121109 0.047030 0.078588 0.269646 0.233380 -0.012972 -0.160359 0.242537 -0.166141 -0.261279 0.140875 -0.036744 0.124723 -0.058727 0.273308 0.013552 0.047184 -0.025002 -0.138896 -0.028196 -0.153402 -0.049947 0.019072 -0.112020 0.009852 0.053294 0.120744 0.070432 -0.310785 0.012497 -0.388336 0.096822 0.212334 -0.159495 -0.333014 0.041163 0.161684 -0.043402 -0.047294 0.029480 -0.234826 -0.097164 -0.020539 -0.032061 0.162382 0.267386 0.205395 -0.376214 0.006941 -0.167132 -0.026562 0.029040 0.390682 0.101434 -0.143954 0.123651 0.256665 0.204206 0.142782 -0.019061 0.388343 0.021877 -0.149127 -0.314637 0.207938 0.056435 0.136101 0.215185 -0.114932 0.521406 -0.403841 0.181802 -0.065395 0.210538 0.088828 0.145956 0.359090 -0.083242 0.164756 0.327113 -0.366431 0.259370 -0.063081 -0.238092 0.126763 -0.170055 -0.233076 0.391774 0.236487 0.148297 -0.197874 0.208120 0.050405 -0.502664 0.123506 -0.097808 -0.216206 -0.055554 -0.306110 0.045423 -0.247164
accra -0.137897 -0.088140 0.000534 -0.150130 -0.282922 0.169862 0.291639 -0.347387 0.229884 -0.138014 -0.188193 0.115027 0.295597 -0.168481 0.079802 -0.426349 -0.311245 0.265552 0.001932 0.084250 0.217529 -0.236202 -0.103267 0.033615 0.190416 -0.081733 0.017240 0.033013 0.114603 -0.065932 -0.156857 -0.453801 0.111108 0.042161 0.342548 -0.025628 -0.044711 -0.395951 0.291282 0.147314 -0.285140 0.227043 0.355345 0.144688 -0.012477 0.054513 0.201252 0.520097 -0.117233 -0.027649 0.159696 0.249018 0.056162 -0.094861 -0.526605 -0.036320 0.169167 0.361231 0.199063 -0.359444 -0.106446 0.303141 -0.196353 -0.262490 0.011916 0.384214 0.069962 -0.018283 0.320968 0.210030 0.008481 -0.144909 0.020869 -0.065031 -0.188751 -0.111357 0.415621 0.044959 0.104547 0.029199 -0.351237 -0.217525 -0.048561 0.020753 0.093727 0.116004 0.091611 0.515747 -0.304485 0.220618 -0.232228 0.445841 -0.004199 -0.240505 -0.359407 0.258272 -0.172816 -0.399279 0.134216 0.550785 -0.131917 0.154516 0.114419 0.167941 -0.115145 0.147977 0.109398 0.304808 -0.382231 0.352566 0.131212 0.347625 0.062960 -0.121228 0.207266 -0.217747 -0.229863 0.474214 -0.068246 -0.227697 0.032362 -0.162051 0.155151 0.052282 0.141787 0.260751 0.124814 -0.005078 -0.255669 0.120073 -0.417751 -0.098450 0.016951 -0.222571 0.358354 0.223774 0.235536 -0.357363 0.699044 -0.133799 -0.038909 -0.081919 -0.140589 -0.280307 0.360945 0.028900 0.119672 0.017080 -0.158817 -0.380469 0.229177 -0.250884 0.029410 -0.168413 0.053707 0.141984 -0.352292 -0.068370 -0.378481 -0.104740 -0.349959 0.063221 0.176745 0.392905 -0.158594 -0.219112 0.086311 -0.107347 0.436756 -0.277719 -0.241189 -0.230797 -0.079269 0.325117 0.234348 -0.148190 -0.329838 0.249229 -0.013639 -0.120599 -0.075372 0.351868 0.018985 -0.029623 -0.345974 -0.203254 -0.066529 -0.132959 -0.021599 -0.138413 -0.145918 0.389863 -0.017591 -0.060419 0.255577 0.021623 0.196532 0.144391 -0.032024 0.214319 0.360928 0.392074 -0.263033 -0.166332 0.317313 -0.155200 -0.154667 0.198065 0.142904 -0.065906 0.005526 -0.477101 -0.065363 -0.163487 -0.071675 0.188645 0.143643 -0.053086 0.056468 0.334210 -0.210119 -0.457005 0.183362 0.002409 -0.189231 -0.237179 -0.054059 -0.331286 0.181586 0.416000 -0.275100 0.021016 0.439141 0.077236 0.082875 0.029267 -0.113936 0.041195 0.345489 -0.158600 0.004777 -0.118923 -0.039045 -0.233654 -0.193051 0.042180 0.000276 0.271827 -0.025595 -0.059505 0.114311 0.229774 0.432979 0.094746 0.107069 -0.181203 0.152725 0.207221 0.122142 0.251736 -0.067432 0.272817 -0.073519 -0.069973 -0.155500 0.127839 0.108701 -0.194473 0.230979 -0.208879 0.028022 -0.079231 -0.114442 0.382354 -0.219537 -0.114759 -0.289210 -0.189184 -0.087905 0.144472 0.159472 -0.045101 0.095701 -0.323387 0.338397 0.115488 -0.010228 -0.421154 0.441738 0.146967 -0.068356 0.249918 0.172475 -0.085514 -0.677613 -0.356281 -0.116025 -0.046010 0.362697 0.001122 -0.338616 -0.542934 0.027588 0.048652 -0.099382 0.096271 0.081516 0.090679 0.068439 0.278064 -0.022567 0.247127 0.276158 0.406090 -0.464670 0.053911 -0.535545 -0.134327 -0.296339 -0.473969 0.271684 0.006698 -0.245501 -0.168548 0.156870 0.067184 -0.107928 0.014654 -0.234977 0.246399 0.071259 -0.022111 -0.239339 0.241735 0.349227 0.065052 0.065648 -0.180314 -0.162686 0.134831 -0.274204 -0.084348 0.255962 0.269494 -0.047434 0.114338 0.274043 0.536501 -0.062089 -0.104108 0.193134 0.156223 -0.007803 -0.056431 0.053283 -0.378369 -0.194216 -0.020078 -0.130354 -0.010270 -0.349482 -0.077398 0.021550 0.023609 -0.211759 0.219577 -0.151501 -0.194240 0.099262 0.044572 0.297562 -0.145932 -0.102720 0.178149 0.043070 -0.089800 -0.044029 0.046183 0.516924 0.288438 0.049596 -0.194658 -0.195197 0.148290 0.253308 0.270420 0.147416 -0.013228 0.334884 -0.450116 0.378837 -0.233444 0.265773 -0.132409 -0.181665 -0.016964 0.133073 0.025377 -0.197440 -0.026406 0.549781 0.051554 0.025835 -0.113855 0.386825 0.078999 -0.057790 0.027775 0.065023 0.043114 0.201276 -0.121038 0.111368 0.160960 0.161995 0.028096 -0.030695 -0.493942 0.017102 0.080987 0.050477 -0.199138 -0.144531 0.171083 -0.037396 -0.181027 0.253908 -0.158089 0.197720 -0.593167 0.164910 -0.576693 -0.101679 0.146196 -0.160212 0.233647 0.397935 -0.028427 -0.520956 0.355853 -0.151244 0.388230 0.094516 -0.143095 -0.051381 0.311542 0.118120 -0.023029 0.073588 0.120014 -0.374428 0.196584 -0.088168 0.158923 -0.127834 -0.125090 -0.205748 -0.262426 -0.316427 -0.090917 -0.150517 -0.197941 0.142985 0.050144 0.113876 -0.089584 0.181761 0.441454 0.106288 0.251951 -0.251750 -0.339480 0.090457 0.186761 0.660483 0.252548 -0.126889 -0.029840 -0.323788 0.028733 -0.043897 0.389764 0.454625 0.148422 0.269523 -0.259372 -0.025770 0.189305 -0.279354 -0.207317 0.169040 0.042560 0.157446 0.011587 0.260047 0.078084 0.057999 -0.368669 0.328321 -0.107497 0.271291 0.193109 0.406283 -0.113236 -0.004130 0.138930 -0.051653 -0.059989 0.114099 0.079002 -0.154637 -0.227694 -0.096848 -0.221049 -0.148849 0.257710 0.341865 0.162415 -0.138537 0.273711 0.079354 -0.393273 -0.269134 0.245042 0.196168 0.327744 -0.126813 -0.084127 -0.343813 0.185519 0.205233 -0.043627 -0.157320 0.239704 0.050789 -0.221007 0.080807 -0.029716 -0.174178 0.195581 0.014143 0.180653 -0.276357 0.032415 0.047257 -0.249203 0.333860 0.024119 0.023665 0.211550 -0.084310 -0.302237 0.219979 0.319751 -0.167389 -0.054400 -0.041947 -0.185159 0.113483 0.145089 0.239720 0.166480 0.507585 -0.195191 -0.114038 -0.013146 0.146427 0.266532 0.023407 0.618153 0.123991 0.188320 0.319347 -0.181415 0.387339 0.042712 0.019158 -0.339521 -0.193156 -0.018966 0.153289 0.022079 0.002212 -0.037541 -0.059579 0.255608 -0.120406 -0.201755 -0.239325 0.165081 -0.224561 -0.020756 0.152219 -0.027851 -0.092802 -0.242647 -0.008534 0.056790 0.094644 -0.056730 0.015296 -0.359574
antananarivo -0.023758 -0.309298 0.257057 0.161495 -0.183971 0.045458 -0.110409 0.408547 0.142945 -0.052912 -0.326761 0.128832 0.412180 -0.102313 0.327196 -0.319240 0.210871 0.066936 0.171251 -0.111318 -0.002495 -0.261881 -0.072117 0.379762 0.156790 -0.144188 0.039761 0.119386 0.134719 0.304228 0.078939 -0.090351 -0.198134 0.050470 -0.106566 0.076760 0.034643 0.168943 -0.022744 0.536787 -0.088252 0.007584 0.342420 0.023085 -0.243683 -0.040166 -0.126446 -0.066228 0.226136 0.047549 -0.196327 0.197292 -0.065757 0.140633 -0.282099 -0.045965 0.347548 0.275108 0.041753 -0.656749 -0.071242 0.296579 -0.132906 0.080711 -0.282742 -0.103757 -0.098039 0.069843 0.181906 0.157140 0.018232 0.000655 -0.173430 -0.166982 -0.026346 -0.152922 0.324419 -0.212563 0.022542 0.179855 -0.250396 -0.101703 -0.106876 -0.228006 -0.201344 0.169064 0.061316 0.091587 -0.122554 0.401433 -0.297437 0.277134 0.036589 -0.141601 -0.270572 0.229899 -0.253516 -0.211892 0.137654 0.238161 -0.073650 0.214670 0.316052 0.446807 -0.225936 0.190307 0.102686 0.191611 -0.152268 0.320283 0.043860 -0.031120 0.026136 -0.035221 0.174429 -0.455016 -0.048047 0.059668 -0.094537 0.169032 -0.089193 -0.105470 -0.219164 0.248612 -0.162565 0.102835 0.253064 0.028732 0.194262 0.177919 -0.104550 0.257808 -0.124584 -0.140600 -0.075361 0.014068 0.422985 -0.183571 0.385914 -0.141520 -0.204311 -0.129864 0.110540 -0.060112 -0.163960 0.174217 0.311847 -0.356296 -0.148735 -0.262950 0.188995 -0.237237 0.211114 0.141747 0.020786 0.018817 -0.068955 0.336345 0.015698 -0.031820 -0.161745 0.099617 0.194528 -0.038224 -0.224805 0.073889 -0.068875 -0.245523 0.018055 -0.052732 -0.036981 -0.048033 -0.085782 -0.055509 0.052883 -0.145469 -0.058675 0.163189 -0.288337 -0.101953 0.109404 -0.116373 -0.001384 -0.225994 -0.278480 -0.317162 0.257760 0.179730 -0.172655 0.053960 -0.359465 0.158560 0.027305 0.215067 0.182136 -0.082788 0.169417 0.174514 0.010610 -0.058950 0.085331 0.057516 -0.099915 -0.302659 0.281657 -0.272192 0.217641 -0.111313 0.060900 0.161646 0.011813 0.224156 -0.324566 -0.130424 0.195686 -0.140858 -0.093220 0.115879 -0.025334 -0.032378 -0.148488 -0.264008 -0.129985 0.047638 -0.015379 -0.319921 -0.220159 -0.401443 0.170196 0.087350 0.164063 -0.027408 -0.102552 0.171435 0.082363 0.183814 -0.004473 0.088185 -0.117603 0.012148 -0.213426 -0.034932 -0.049396 -0.385516 0.044591 -0.210581 -0.113400 0.423734 0.270823 0.031135 0.151294 -0.067323 -0.028506 0.207793 0.052051 -0.364374 -0.470869 -0.280074 0.091479 0.100739 -0.143258 -0.140587 0.150428 0.271177 0.133237 -0.109036 0.007057 -0.050320 0.094855 0.195236 -0.214003 0.044752 -0.011321 0.132000 0.167846 -0.273309 -0.013229 0.241569 -0.044222 0.038598 0.174841 -0.504652 0.082041 -0.132059 0.075495 0.215940 -0.320574 -0.167399 0.349321 -0.150270 -0.341573 0.249317 -0.334233 0.139514 -0.213118 -0.266744 -0.065632 0.297685 0.113203 0.097805 -0.247205 -0.314583 -0.332313 0.478266 0.077360 0.174131 0.103173 0.128102 0.282147 -0.050648 0.050454 -0.287089 0.155906 0.292080 -0.297779 0.236883 -0.271905 0.384716 -0.263604 -0.318119 0.008834 -0.009438 -0.230594 -0.329161 0.567078 0.065937 -0.039616 0.023934 0.256887 0.083238 -0.072247 0.263884 -0.099230 0.328931 0.052523 -0.052261 -0.029643 0.140909 0.024519 -0.185909 0.027741 0.022223 -0.047015 0.195348 0.070722 0.101719 0.453898 0.051441 -0.181231 0.021981 0.059796 -0.129498 -0.103108 -0.219041 0.199029 -0.051594 -0.209808 0.188916 0.186575 -0.037544 -0.591806 -0.165128 0.002217 0.142088 0.073481 -0.061835 -0.206682 -0.024575 0.084551 0.055809 0.197403 0.169035 -0.107703 -0.202351 -0.073465 -0.094638 0.016045 0.151575 0.243993 -0.253514 -0.116964 -0.032588 -0.156455 0.042286 0.009806 -0.318514 0.012436 0.189620 -0.223098 -0.291050 0.434459 -0.314904 0.285475 -0.057788 -0.014413 -0.089187 0.011026 -0.233493 -0.070628 -0.050462 0.388982 -0.164557 -0.076616 0.065761 0.117728 0.191433 -0.010814 0.156478 0.042405 -0.031081 0.151803 -0.216528 -0.143172 0.274282 0.220489 0.244808 -0.082890 -0.063123 -0.234700 -0.283722 0.249524 -0.187828 0.029543 -0.125710 -0.043965 -0.064654 0.376731 -0.176177 -0.072768 0.182320 -0.277176 -0.268806 -0.118276 0.091491 -0.123065 0.119106 0.232382 0.032620 -0.295583 0.122400 -0.074384 0.127843 -0.080292 0.025396 -0.064151 -0.164029 -0.162615 -0.193926 -0.353031 -0.019153 -0.042010 0.056599 -0.085448 0.103258 0.137075 0.097807 -0.079735 0.043951 0.158982 0.100335 0.176973 -0.176962 -0.053039 0.105733 0.144156 -0.226836 0.058628 0.022825 -0.166592 -0.040966 -0.254340 0.376624 0.095404 0.139605 0.176050 -0.071937 0.032906 0.191003 -0.175474 -0.106866 0.074697 0.254138 0.002058 -0.098735 0.141781 -0.184126 -0.164461 0.043809 0.110353 -0.125356 0.145469 -0.419895 -0.022198 0.282075 -0.087341 0.375183 0.019254 -0.128084 0.349549 0.275865 0.074445 0.137952 0.128156 -0.200245 -0.256814 -0.047099 0.266490 -0.106342 -0.101016 -0.076634 0.005251 0.012609 0.273516 -0.347857 -0.008993 0.253118 -0.234471 -0.288047 0.045930 0.225283 0.068022 -0.123500 -0.121117 0.009416 -0.202022 0.234012 -0.374765 0.147337 -0.177743 0.341734 0.027022 -0.114573 -0.048877 -0.276921 -0.117895 -0.084540 0.154771 0.074107 -0.113272 0.399088 -0.129301 -0.270206 -0.395097 -0.225131 -0.126189 -0.019315 0.206933 0.078638 0.302778 0.508848 0.030410 -0.162786 -0.110802 0.012505 0.157003 -0.001463 -0.012045 -0.291850 0.039624 0.053987 0.176668 -0.149171 0.105456 -0.175569 0.092695 0.114991 0.341462 -0.111789 0.112921 0.104318 0.202737 0.168608 0.267172 -0.077460 0.067868 0.356039 -0.330107 0.037858 0.194861 -0.192580 0.208384 -0.020672 -0.120140 0.099825 -0.269243 0.347409 0.117662 -0.387507 0.004339 0.115466 -0.111619 0.003829 0.151266 -0.327145 0.160224 0.131898 -0.208906 0.000549 0.236896 -0.151634 0.083408 -0.295155
ashgabat 0.171215 -0.233942 0.115882 -0.096085 -0.047678 -0.214259 0.173694 0.083338 0.241213 0.097266 -0.005953 0.342670 0.151029 -0.159847 0.023429 0.140937 -0.149637 -0.051693 -0.021918 0.002832 0.403176 -0.001825 0.006993 0.417816 0.004638 0.083547 -0.077371 -0.041249 -0.006163 -0.325905 0.318799 -0.194192 0.055728 0.083342 0.029317 -0.087310 0.045361 0.261171 -0.211423 0.138213 0.429165 0.186372 0.098110 0.008288 -0.008379 -0.374229 -0.140157 -0.120287 0.179578 0.045015 0.190312 0.165594 -0.032865 0.022858 -0.161054 0.181613 -0.113052 -0.057605 0.133232 -0.266416 -0.029624 -0.061033 0.175919 -0.117344 0.101401 0.268153 0.049709 0.232157 0.013972 0.177459 0.034583 -0.059556 0.324876 -0.084013 -0.202639 -0.163829 -0.031248 -0.151863 0.040060 0.338566 -0.142220 0.068005 0.262020 -0.439575 0.014687 0.409042 -0.194690 -0.312713 -0.088142 -0.274241 0.063910 -0.050522 -0.039061 -0.401440 0.046232 -0.074441 -0.091424 -0.162335 -0.144811 0.002743 0.424858 0.262855 0.125799 0.523631 -0.259983 0.315655 0.080788 0.059259 -0.368059 0.455343 0.388052 -0.086054 0.113822 -0.018588 0.006161 -0.147073 0.105157 -0.014688 -0.011357 -0.037018 0.043657 -0.081445 0.143357 0.203175 -0.102385 -0.108080 -0.128070 -0.081292 0.058882 -0.091742 0.236783 -0.157293 -0.088628 -0.074217 -0.098368 -0.394812 0.287563 0.162720 -0.013655 0.136273 -0.021336 0.084260 -0.094253 -0.049706 0.326349 0.527957 -0.198290 -0.351340 -0.082989 0.204629 0.167019 -0.312327 -0.109029 0.108277 -0.077197 -0.208541 0.195040 0.208323 -0.276149 0.307269 0.118888 0.018964 -0.261598 -0.000954 0.040255 -0.172668 -0.123754 -0.057105 -0.306727 -0.000526 0.059708 -0.359106 -0.141481 -0.089296 -0.276596 0.051912 0.252702 0.286431 0.360899 -0.331519 -0.128825 -0.263895 0.202187 0.257234 0.165596 -0.140575 -0.045707 0.036297 0.355286 -0.201149 0.049600 -0.004441 -0.011457 0.390577 0.163621 -0.001950 0.282926 0.191170 0.026402 -0.067103 -0.069774 -0.019659 0.058415 0.087873 0.057403 -0.098197 -0.211525 -0.328494 -0.147797 0.134142 0.148025 -0.274843 -0.189052 -0.143483 0.077255 -0.041605 0.117581 -0.040879 -0.208516 -0.026978 -0.073543 -0.007088 -0.031711 0.304302 -0.418012 0.094964 -0.125586 -0.044048 -0.228877 0.184748 -0.153875 -0.072762 0.195250 0.139373 -0.021185 0.056106 0.141396 0.021963 0.076322 -0.085763 -0.306435 -0.082366 0.071542 -0.062410 0.096252 -0.331913 -0.011378 -0.044111 -0.121608 -0.180498 0.170453 -0.001309 0.171029 0.137624 0.094004 -0.121445 0.230512 -0.121312 0.110289 -0.063038 0.010420 -0.196417 -0.010778 0.019949 0.067148 -0.039384 0.000257 0.057678 -0.044577 0.205541 -0.314617 -0.118584 -0.038393 0.333587 0.125840 -0.079844 -0.054951 0.258563 -0.021963 0.057557 -0.138885 0.096376 -0.072452 -0.234507 0.345389 0.052624 -0.052414 0.165504 0.446994 0.370207 -0.386687 0.446497 -0.123483 -0.068875 -0.195480 -0.194032 0.038322 -0.176873 0.270853 -0.215814 -0.666377 -0.203294 -0.023647 0.237214 -0.102859 0.103340 -0.432939 0.130293 0.227592 -0.036435 -0.084747 0.173613 0.240397 0.029609 -0.196839 0.091521 0.038899 0.068818 -0.299195 -0.065172 0.171768 0.442479 -0.017892 -0.109100 0.222974 -0.056457 0.272660 -0.241557 0.265913 0.096646 -0.172309 0.440174 -0.120637 0.328283 0.186107 -0.059395 -0.016617 -0.116898 0.109957 -0.182014 -0.089197 0.327699 -0.123391 0.216332 -0.078629 0.227704 0.023581 -0.151633 -0.435409 -0.198771 -0.075959 0.039479 -0.035797 0.068606 0.038728 -0.001547 0.114911 -0.016956 -0.118332 0.058959 -0.299812 -0.089427 -0.026461 0.407607 -0.051102 -0.062996 0.232593 0.234402 0.004403 -0.076386 0.191104 0.288437 0.034965 0.328685 0.062539 -0.305439 0.135917 0.192746 0.267618 -0.025113 0.128983 0.123778 -0.024464 0.315360 -0.345434 0.054768 0.251155 -0.595960 -0.160947 -0.263079 -0.085759 -0.170670 -0.188577 -0.073948 -0.270491 0.030772 -0.040763 0.248706 0.007167 -0.270887 0.295170 0.063591 -0.160723 0.039415 0.424509 -0.090324 0.230800 0.117366 -0.094836 -0.395617 0.093827 0.254321 -0.135416 0.314406 0.277679 -0.101028 0.076207 -0.051187 -0.187720 -0.053880 -0.004948 -0.009914 -0.172796 -0.074237 0.192027 -0.081218 0.246617 -0.018845 -0.060519 -0.053963 -0.181501 -0.057565 -0.207318 -0.052224 -0.010598 -0.166968 -0.148613 0.257195 0.000452 -0.126204 0.125422 0.164231 -0.224576 0.061650 -0.106807 0.344046 0.082240 -0.299682 -0.366695 -0.064903 0.224151 -0.132806 -0.210056 0.032269 0.147120 -0.002714 -0.320884 -0.004314 0.085914 0.072370 0.179816 0.242214 0.062193 -0.099279 -0.004491 0.024792 -0.118977 -0.207654 0.068802 -0.139460 -0.145112 -0.015809 -0.158675 -0.155709 0.232584 -0.488498 0.141997 0.293628 0.084803 0.120380 -0.014050 0.193101 0.025385 0.207939 0.217012 0.189551 -0.107665 -0.064907 -0.261447 0.190283 0.115819 0.247782 -0.143133 0.105423 0.310441 0.478949 -0.170860 0.049706 0.335374 0.250728 0.048506 -0.001724 0.258111 0.131518 0.229164 -0.022497 0.278475 -0.087920 -0.138335 -0.249878 -0.044639 0.325019 -0.164980 -0.264100 -0.051533 0.188708 -0.019011 -0.036298 0.050895 -0.030639 0.187007 -0.117977 -0.143373 0.098882 0.052558 -0.044422 -0.008323 0.044973 0.190281 -0.305096 -0.126257 -0.335721 -0.018073 0.165039 0.056781 -0.125553 0.126406 0.158287 -0.099466 0.230568 -0.086465 -0.406953 -0.277144 0.014674 -0.172944 -0.033526 0.089771 0.181730 -0.177196 -0.079413 -0.434292 -0.115741 0.058948 0.069004 -0.018647 -0.132489 0.303080 0.009864 0.192871 0.183088 0.257419 -0.006843 -0.149915 -0.167273 0.027589 0.141904 0.073131 0.050326 0.299222 -0.061470 0.215447 -0.187499 0.298404 0.120783 0.276611 0.231570 -0.030297 0.266159 0.290481 0.121213 0.089296 -0.184076 0.333457 -0.148294 -0.367439 0.394853 0.011519 -0.303301 0.151316 -0.185904 0.073844 -0.407840 0.022142 -0.122041 -0.243822 -0.010467 -0.076996 -0.014821 -0.185676 0.011456 -0.265108 -0.638581
